Weights 1
0.440332
-0.71126
0.509314
0.942719
-0.337307
-0.995156
0.0734392
-1.26114
-1.65103
1.00679
1.67534
-0.795281
-0.769199
0.150709
0.048671
0.205838
0.019675
1.09424
1.17024
0.069705
0.579959
-2.84994
1.96064
-0.886267
0.63476
-0.502975
-0.22504
0.370978
3.33348
-0.0322626
0.479837
-0.2405
-0.710432
-0.963465
-0.704615
-0.0874922
0.565029
-1.93041
0.217123
-0.139946
1.59711
-1.19865
-0.403246
1.31603
-1.34397
-0.482238
-1.87339
2.72206
-0.351056
-0.465237
-0.469474
2.09052
-0.939068
0.140536
-0.0803183
-0.784244
-0.507928
1.12013
-1.22957
-1.2468
-0.314306
-0.882364
1.48135
1.13315
-0.654715
0.541959
-1.49379
-0.886094
1.67526
-0.528704
-0.598442
-0.790209
0.553728
-0.208274
-1.2287
0.0546118
0.610736
0.360147
1.02372
-0.16336
-0.794867
0.283109
-0.724197
-0.966378
-2.51595
-0.242376
0.76252
-0.196431
-0.621154
-0.822008
1.65999
0.623279
0.121279
-0.269239
-0.955523
0.169466
0.191413
-1.21411
-0.522035
0.849301
-0.853998
-0.768306
-2.20417
-0.337962
-0.704386
0.497391
-0.228774
1.38157
0.876262
0.947411
-0.526535
-0.712795
0.120021
1.28486
-0.322429
0.330161
1.48744
0.67539
0.171938
-0.0882208
2.05148
-1.70053
-1.36832
-0.94123
1.05153
0.535435
1.71842
2.30605
-0.102471
1.06479
-0.104993
0.597381
0.392919
0.100166
-0.128802
1.33441
-0.123163
0.852284
0.989517
-0.509036
-0.0856675
-0.133136
-1.13484
-1.39537
-0.514498
1.20207
1.48494
0.295047
-0.750315
-0.517725
-0.632512
1.03638
-0.255328
1.19459
-0.130623
-1.13145
0.573446
-0.431671
0.351325
0.0432042
0.286357
0.0996542
-2.18022
-0.511791
0.42098
0.12838
-1.57344
-0.82674
1.50147
-0.241556
-0.618089
0.866758
0.444923
-1.10422
0.916095
-0.201529
-0.00374311
0.046333
-0.582419
-1.29578
-1.74277
0.0193785
0.278839
0.706962
1.81373
0.420607
-1.04887
0.196973
0.291326
-0.822719
-1.16077
-0.125618
0.896899
1.43489
1.09126
0.22427
0.614668
-0.670527
-0.15992
-0.438194
-0.516447
1.19027
0.08673
0.587481
1.61625
1.03335
0.862853
0.12418
1.80796
1.18251
0.117811
1.9551
-0.888483
-0.0696979
0.810268
-0.233316
-2.21473
0.103062
-0.177947
-0.206306
-0.830552
-2.24609
-1.12778
-1.19631
1.89144
1.33057
0.477888
-1.24534
-1.58728
0.128632
-0.192877
-0.63684
-0.919494
0.178881
0.41728
1.30362
-0.724832
0.421924
0.0976942
-1.76982
-1.08063
0.817562
-0.471311
-0.697775
0.22001
-1.01875
-1.26071
-0.498107
0.65713
0.820469
-0.448504
-0.733731
-0.463717
0.242387
0.297719
0.171509
0.748549
0.762098
-0.337337
1.14845
-0.625256
2.0294
0.610319
-1.31471
-1.59578
1.3695
2.0577
0.977273
0.481939
1.48445
-0.543436
0.514243
1.67885
-0.666197
-0.0838448
0.417992
0.332987
-1.07554
0.0694865
0.919354
-0.00485334
0.212298
0.384032
2.36293
-2.13027
-0.209405
-0.470626
-0.465008
1.73384
1.35311
-1.07633
-0.117038
-0.240017
1.09103
-0.565853
-0.727512
-1.2363
1.03793
-0.355067
0.461928
-0.642778
-0.000263889
-0.878762
1.15536
1.24857
0.479823
0.28029
-0.229012
-0.6684
0.730714
0.357525
0.595279
0.440847
1.60374
-0.72578
0.511118
-1.38155
0.150796
0.680973
-0.0815034
1.17743
-0.255164
-0.288734
-0.383001
1.00186
-0.412589
0.623469
0.634065
-1.8822
1.25504
0.318076
0.308402
0.261916
-0.309102
-1.16589
0.320168
0.590395
-0.661752
-1.83736
-0.300806
-0.240388
-1.54231
1.64071
-0.0219055
0.110377
-0.103157
-1.33457
-2.57438
-0.238635
-0.188595
-0.63081
1.39331
-1.42945
0.762733
0.619047
-0.0453275
0.15453
-0.684146
0.356838
0.193283
-0.233166
1.34231
-0.304146
-0.208584
-0.244984
0.774049
-0.945378
0.113301
-0.387691
0.806783
-0.171903
0.635004
-0.753766
1.67934
-0.813411
-1.46617
-0.854645
-2.21934
1.12311
-0.819019
1.68214
-0.616012
-0.0313484
0.207214
-0.579613
0.373626
-0.0112515
-0.731249
1.63316
-0.860227
1.31017
0.164799
0.281725
-0.381524
-0.738128
0.392293
-0.0308602
0.539648
0.0785484
-0.80036
0.33921
0.5563
-0.0573553
0.897731
0.0754708
-0.872307
-0.636695
0.103498
-0.147838
-0.608976
0.64325
-0.917228
0.55568
0.453495
-0.640463
0.423542
0.261051
-0.6517
1.72995
0.4035
1.53942
-0.105245
-0.602001
-0.966957
0.398858
-0.240335
-0.399042
-0.159916
1.65072
0.19503
0.134911
0.243577
-0.158479
0.115947
-0.65015
1.19869
1.14573
-0.0564187
1.16145
-0.60665
1.51166
2.20817
-1.29667
-0.214988
1.18532
-0.307306
-0.961076
-0.477533
-0.797599
-0.774716
0.296194
2.36978
1.2703
0.792162
0.266351
0.422944
-0.0643238
0.460628
-0.453737
-0.0818727
-0.468
1.1756
0.683216
0.831763
0.122169
-0.828649
-0.287099
1.50539
0.583455
0.754193
-0.562298
0.974168
-0.496552
-1.55456
-0.322314
-0.317657
-0.66466
0.352875
0.125469
-2.01967
1.369
-0.603821
1.76916
0.152977
0.225659
1.00158
-0.703225
0.791825
1.40422
0.592625
-0.563054
-0.0776775
-0.4327
1.2073
-1.40902
0.184354
-1.76868
0.390979
-0.327384
0.127312
0.438201
0.0768545
1.4056
1.09782
-0.302771
-0.71933
-0.107371
0.451514
0.242827
-1.52755
-0.232621
-0.650659
0.128321
-0.0646053
-0.444327
-0.575649
0.165886
0.159313
1.02183
-1.12574
-1.11639
0.642779
-0.678121
-1.21568
-1.34083
0.0188105
-0.590999
-1.88231
1.07922
-0.415518
-0.122357
-0.547449
0.908504
-0.741129
-0.424361
0.606868
0.00079241
0.0223899
-0.430184
-0.790204
0.345052
0.249606
-1.74308
1.1107
-1.45003
-0.985473
-0.347803
2.04555
-1.51425
1.86068
-0.0978347
0.123265
0.755093
2.39493
-0.542356
-0.147406
0.228195
-0.0436726
0.723047
0.460797
0.214952
0.952217
-0.884053
-1.96505
2.04388
-0.166751
0.505434
-1.69298
1.56296
0.165772
-0.788712
0.0364586
-0.542748
0.24055
-0.218043
-1.21253
-0.741696
0.739892
0.895462
-0.669912
-2.12227
-0.441128
0.866104
1.19271
-2.0521
0.567057
0.515714
-0.445928
-1.79453
0.578825
-1.34391
1.68899
-0.804637
-0.635467
0.0580913
0.664499
0.53182
-0.215445
-0.61207
0.258562
0.335773
-0.355589
-0.456936
-0.658231
-2.10368
-0.86623
1.40808
-0.365635
-2.11769
-1.27508
0.233841
-0.693048
0.329193
-0.988639
0.650997
-1.41155
-0.983489
0.369521
0.446463
2.04628
-0.632322
0.552337
0.463747
0.37464
0.260071
-0.80542
0.323998
-0.581585
-0.240329
-0.0319647
-0.492145
0.0571033
-0.33796
0.732396
-1.45551
-0.354055
0.0686586
-1.03993
-1.08696
-1.20525
0.736566
0.550972
1.7978
0.189411
-1.13817
0.81625
-0.549021
-0.473205
1.29877
0.557836
0.459151
1.34436
-0.584845
1.16935
-1.3664
-2.04542
0.540653
0.392492
-0.998671
0.167235
-1.29883
1.29655
-0.845606
0.206814
1.27508
-0.0801663
0.450413
0.853085
1.57784
1.03689
1.03932
-1.52473
1.20194
-0.561737
-0.685359
0.3835
1.66972
-0.684941
1.54769
-0.159941
1.81601
0.304135
1.20369
1.16704
0.942673
-1.47819
0.545354
-0.385268
-0.40244
0.370757
1.83336
0.497058
0.896703
0.525142
0.685826
-0.179751
1.67846
-0.570717
0.618842
0.850308
-0.857588
1.20264
-0.52028
0.240297
-1.31789
-0.0689591
0.903265
1.96286
0.0570313
0.388353
1.47471
-0.00137622
-0.164912
0.277384
-1.15221
0.0907014
1.29732
1.19139
-0.0155357
1.12695
-0.738982
-0.244662
0.137619
0.754573
1.22687
0.386517
-0.857011
0.973846
-1.22827
-0.97605
0.600285
0.422514
0.0365515
-0.942111
-1.11383
0.0805075
-0.327518
-2.37723
-0.0196101
-1.11669
0.104148
-0.917729
0.104569
-2.26263
-0.775931
-0.764593
-0.829391
0.970613
1.22194
0.0834906
-0.4647
0.173503
-0.0206839
0.255128
-1.95898
1.14203
-0.775065
0.555362
0.478308
-0.934817
-0.509687
0.00714821
0.354347
0.8936
-0.526802
0.406351
0.75359
-0.757917
0.386709
1.16981
1.61697
-0.806353
1.32917
-0.479949
-1.63546
-2.38703
1.12243
0.919327
0.206542
1.50493
-1.42802
-0.0137355
0.181625
0.362959
-1.22206
0.0985143
-0.495365
-1.47145
0.208852
-0.49029
2.03029
-0.395889
0.584424
1.62696
0.0156831
1.02706
-0.227586
1.20824
0.283112
0.672046
-0.715059
1.41303
0.387773
0.0419528
0.687128
0.0902785
-0.637812
0.628811
1.07119
0.902167
0.14729
-0.804615
0.43144
-0.152724
-0.0531635
0.0909836
-1.0571
0.274121
0.297321
0.503637
-0.366024
-1.01707
-1.81593
0.384268
0.214567
0.585937
0.696395
1.24085
1.12005
1.33208
1.50596
0.111583
-0.366737
-0.191601
-0.639157
0.472333
-0.56665
-0.26155
-0.637218
0.808274
0.0173231
0.30249
0.793966
1.74597
-0.398471
-2.28466
-1.94797
-1.08722
0.839624
0.795859
1.41707
-0.836525
-0.0805091
0.0685432
-0.646378
-0.0830297
0.0914458
-1.44051
0.776162
-0.323915
0.538703
-1.36768
0.228638
0.720534
0.109862
1.24199
0.262737
0.423142
0.708807
-0.141274
0.168799
0.084592
0.201188
-1.35701
-0.404663
-0.882037
-1.64735
-0.925958
-0.573625
-2.04463
-0.0832374
-0.181742
0.857741
-0.0601258
0.332498
-0.632005
1.36099
-1.18778
-0.302566
0.870715
-1.64013
0.582735
0.903332
0.675418
-0.0270181
2.00284
1.19938
0.0328889
1.51146
2.16459
-0.669769
-0.278796
1.42299
-0.434875
-0.0475197
-0.640936
-0.589515
0.237034
0.148032
0.074566
1.4435
0.742665
0.484188
-0.914235
1.67667
-2.26052
0.531955
0.633219
-0.736261
0.238726
-0.700492
0.462524
-0.370259
0.295353
1.42642
-0.0771243
-1.38465
-0.106951
0.726641
-0.10662
0.290829
1.06082
1.97235
-0.149478
1.84259
0.475395
0.845967
-0.873918
-1.37201
-1.04536
1.53359
-2.34737
-0.00645975
-0.91328
-0.778459
-0.264491
1.35902
-1.18278
0.608833
-0.404559
0.0413877
-0.46859
-0.559383
-0.0909935
1.94564
1.91977
-0.992114
-0.055416
-0.323204
1.4393
-0.917797
0.376255
0.375524
-0.28973
-0.916136
-0.00657728
0.885784
-0.36295
-1.0987
0.0395694
0.918119
-1.82186
0.671439
1.00913
1.57727
-0.298066
-0.950122
0.334753
0.725281
0.171973
-0.989376
0.372386
-1.95186
1.23715
0.626126
-0.531703
1.01037
-0.601365
0.639776
-0.527679
-1.56295
0.17528
0.246691
-0.855755
0.60115
-0.305142
1.76213
0.349326
-0.143072
0.890298
0.867648
-0.639681
0.954661
0.13769
0.521483
-1.89034
-1.17857
2.00704
0.141356
0.036319
-0.129666
-1.1207
0.281703
0.312774
-1.20729
0.422226
-0.783997
-1.17295
-0.569558
-1.06154
-0.183024
0.425028
-0.0653481
-0.155398
0.266918
-0.160021
-1.31483
0.726311
-0.111169
0.18483
-0.601403
0.630222
-0.988131
-0.508977
0.0941534
-0.677965
-0.596674
-0.285362
-0.802851
1.19201
0.234408
0.316642
-0.0679209
0.311364
0.562644
1.90352
2.04566
-1.38964
-0.7261
-0.123606
-0.848869
-0.247609
0.0718767
0.889864
1.35688
0.810687
-1.14803
-0.847784
0.255744
-0.669834
-1.19421
-0.259977
-0.0982625
0.0600284
0.0523906
0.31299
-0.824576
0.391176
-2.27788
-0.9523
0.793261
0.236431
1.11988
-0.0681359
-0.135093
-1.6418
0.878648
-0.517587
0.82845
0.902643
-1.12368
-1.27207
-1.5978
-0.775335
0.885133
0.000733931
0.336935
-0.0629212
-0.638523
-0.801926
0.574334
-1.12546
0.0567249
-0.538871
-1.9328
-1.28449
-1.72449
-0.1118
0.516485
-0.876528
-0.781922
0.840093
2.84507
-0.756692
1.05533
-0.673819
1.71158
-0.594162
1.06528
-0.145315
0.982719
1.80982
0.512852
1.30946
-1.39059
0.0660959
1.13414
-0.692416
-1.48618
0.924762
-0.56078
-1.31426
1.00431
-2.46472
-0.414584
-1.12355
0.677533
-0.190248
-0.169763
0.781661
-0.488015
-0.22552
0.272439
-1.35457
-0.712413
0.293773
-0.705632
-0.66879
0.781434
-0.96111
1.35505
-0.253262
-1.11403
-0.772393
-0.341286
1.78084
1.09031
-0.437933
-0.817615
1.91455
1.79877
-0.551427
-0.150268
0.0433448
-2.28808
-0.167452
0.0670455
-1.43979
-0.897244
-0.121974
-0.850998
-1.85285
0.921887
-0.399715
0.580389
0.884152
-0.787398
0.142373
-0.62837
-1.21871
0.726201
-0.859704
-1.80323
-1.08132
0.129907
0.728742
-0.447345
1.04667
0.282508
-0.030499
0.594974
-0.518137
0.582751
-0.179778
0.593647
0.783759
1.08776
-0.152194
1.03239
-1.56138
1.40383
-0.214219
0.731773
0.0895668
-1.31372
1.52103
0.216695
0.58932
1.48344
1.28068
-0.984613
-0.0636102
1.35337
-0.738001
-0.48697
0.638904
-2.36577
-1.25736
1.47003
-0.0157469
0.919901
-0.910665
0.0678287
-0.0153141
-0.266672
0.953108
0.717809
-0.562344
-1.01561
0.339681
0.630042
1.92739
1.73271
-0.563425
2.99061
0.123874
-1.34885
-0.469414
0.603909
-2.0479
-0.726207
0.922255
-1.12761
-1.48175
-0.994721
0.184401
-0.859908
-0.449475
-0.948434
0.586976
0.786898
0.820516
-1.45162
0.757537
0.672193
-0.339852
0.00466593
-1.39264
0.501526
-0.673519
-2.81263
2.49724
0.499226
-1.4635
-0.309255
1.35709
-1.28693
-0.175316
0.604356
0.0712024
-0.0309857
-1.34635
-0.657429
-0.177285
-0.471688
-0.752496
-0.246962
1.05162
0.347719
-0.70606
-0.398429
-2.38793
0.602203
-0.473363
-1.12823
-0.996092
-0.449021
0.286801
-0.898705
-0.147893
-1.50443
1.88138
-0.689828
-0.743091
-0.325039
-0.594897
-0.472807
-0.385207
1.31641
0.489016
-0.277788
1.16106
-0.991027
0.150414
0.341707
-1.06556
0.205109
0.0698947
1.15141
1.52274
-1.85099
0.674225
0.115129
-1.94695
0.271901
0.293149
-0.581066
-0.659059
1.36834
1.05976
-0.745862
0.521856
-1.55333
0.113242
0.523542
-0.972219
-0.722392
-0.0210265
-0.381332
-0.235965
0.436171
-1.20803
0.211565
-0.225623
-1.20039
-0.00201194
0.89025
1.55385
-0.0864221
0.367244
-0.0175796
0.369065
-0.262371
0.0871842
-1.04038
-0.132584
0.296446
0.286022
-2.31709
-0.17361
0.387319
2.66639
-0.251107
0.908756
1.90889
-1.38714
-0.166571
-0.787641
0.578479
-0.47793
0.31561
0.157717
-0.5834
0.72286
0.610406
0.574599
-1.80839
0.0531776
-1.05814
-0.165207
-0.644991
0.627628
-0.384573
0.0469505
-1.66022
0.423004
-0.725227
-0.0792084
-0.555452
1.15835
-0.637785
0.193007
1.535
0.227152
1.06072
-1.6365
1.00787
-1.15996
-1.09852
-0.126609
-2.9528
1.61909
-0.647521
0.881336
1.69985
0.254357
-1.57126
-0.689548
-0.558886
-1.10185
-0.0123513
1.75362
1.01344
-0.494053
0.576807
0.628493
-0.406245
-1.96055
-2.50948
-0.86963
0.781927
0.855719
-1.26871
0.735222
-1.07
0.00418379
0.215099
0.730691
-1.04676
0.675832
-1.12217
0.0940528
0.969606
-1.09196
0.168795
-0.668205
-1.2283
0.596075
-1.06666
-0.144521
-1.05806
0.568117
0.575373
1.48275
-1.51125
-1.84562
-2.7095
0.859227
0.0101905
-2.24547
1.10603
-0.000964263
0.761002
-0.482916
0.200864
-0.288662
-1.1519
1.74158
0.373138
-0.353536
-1.15925
1.20611
-0.281283
-0.224726
-0.120928
-0.0230218
0.320101
-0.526642
0.309177
-1.14587
-1.73181
0.166216
1.11395
0.50225
1.15461
-1.3045
3.02525
-0.526296
1.17583
1.37041
-2.14678
-1.05878
0.199262
-2.61138
-2.62612
0.769129
0.00914364
-0.450653
-2.04522
0.222635
-0.783823
0.0906658
-0.269438
-2.57068
-2.55229
-1.24015
-0.831127
2.60438
0.499139
-1.61417
0.0601754
2.04612
1.67361
1.41248
0.0784348
-1.18947
0.254246
0.682145
0.0441055
-0.227014
0.274741
0.88129
-0.103941
0.251051
-0.827643
1.63008
0.70136
0.92356
1.85989
0.673554
1.30621
-0.141956
1.98631
-0.357514
1.28523
-2.03816
-0.329918
-1.26262
0.0697349
-0.298008
0.613358
0.688624
-1.26094
-0.01563
0.573836
-0.588447
0.405167
-1.4609
1.15601
-2.43676
0.315244
-0.965423
0.316313
-0.632202
1.64681
-0.402949
-0.779021
-0.637448
0.950973
-1.63006
1.67969
0.387249
0.837821
1.0764
0.541506
-0.193053
-1.0439
1.31106
-1.3218
1.1019
0.602447
0.681111
-1.42409
-1.29179
0.129355
-0.724672
-1.9382
1.02033
0.378467
0.565894
2.98848
1.24398
0.783436
-1.9516
-0.227681
-1.37001
-1.28741
0.677809
-0.601868
0.0820693
-0.997608
0.684471
-0.585076
1.23956
0.704865
0.442013
-1.03411
-0.971345
1.5031
-3.07806
0.346636
-0.668937
0.320709
2.13937
0.669398
1.59038
0.426035
-0.811754
-1.30947
-1.57016
1.4439
0.91047
-2.04485
0.372557
-0.418006
-1.17749
0.983694
0.059391
-1.37285
-0.295347
-1.69106
-0.326332
0.37851
1.00142
-0.42685
-0.958814
1.79977
-0.931145
-1.35237
-0.4186
0.791297
-0.0409275
-2.25742
0.988999
0.35716
0.0308514
0.812532
0.351795
0.409266
0.0555394
-1.35874
-0.571066
-0.909506
-1.06948
1.16414
-1.98366
0.804179
0.123467
0.0529399
-0.869051
0.0358644
0.144643
-0.178776
0.326774
0.0990113
-1.55237
0.0441623
-0.517876
-1.30419
0.0479953
0.814525
-0.952395
-1.71128
-0.221175
0.617588
-1.59731
-1.80079
-0.0447233
0.193453
0.565229
0.31354
-1.35224
1.33532
-1.14751
0.173876
1.40168
0.542152
1.49909
-1.26438
-0.313575
-1.85567
-2.3204
1.04605
0.422196
0.0352136
-0.24869
-0.222417
-1.23648
1.24216
0.568905
-1.69748
-0.258057
-2.15981
-0.268815
0.713755
-0.795035
-2.21775
-0.429427
-0.0276213
-1.34484
0.44486
-1.29212
0.494663
2.06321
0.00517824
-0.749735
-0.684665
0.91203
-0.398044
0.414743
-0.34234
0.161195
-0.234703
-0.217294
0.625024
-0.964705
-0.774589
2.4569
1.73453
-0.865808
-1.32401
0.219735
0.0331907
-0.534056
-1.27916
-0.0534476
-1.22592
0.349151
2.36737
1.40466
-0.0948682
-0.155222
1.31181
0.109366
-0.432169
-0.638516
0.241286
1.53757
-0.826728
-1.52526
0.87069
-0.171399
-0.659518
-0.748603
0.233344
1.47183
-0.245741
1.44725
1.31581
-1.05135
-0.160505
1.07775
0.965125
-1.34161
0.510254
0.0730026
-1.48785
0.415039
-1.83821
0.267409
0.1598
0.722384
-1.24978
-0.83544
-0.215001
0.576972
-0.373871
-2.37162
0.391181
1.22039
-0.437647
0.247169
-0.70534
-0.352028
-0.154495
-1.95973
-0.70737
1.38066
-0.0729835
-0.527969
1.60643
0.978258
1.09659
-0.162726
1.44922
-1.95996
-0.150352
1.41428
-1.4536
-1.78624
0.711484
0.489319
-0.400217
-0.115148
0.0193762
0.159982
-1.01308
1.13689
-0.147347
0.0838699
-0.852622
0.620798
-1.08217
1.39702
0.545782
-0.115144
-0.706313
0.509322
-0.153761
0.541207
-0.893766
-0.364689
0.566202
1.91624
-0.788699
1.09684
1.08081
-0.849618
1.01097
-0.275443
0.249086
0.255749
0.118078
0.902385
-1.20724
-0.13644
2.31483
-1.23132
-2.25769
-0.131804
-1.15675
0.460036
-1.42994
0.125324
0.401591
0.0473248
1.46187
-0.819724
-0.558311
0.0934987
1.25358
0.330005
1.53735
-0.906417
-0.0643778
-1.39001
-0.888766
0.992388
0.69318
0.308073
-0.0628195
-0.416217
-0.625104
0.680972
-0.609811
-0.0247587
0.451552
-0.676417
-0.200212
0.305276
-1.65089
0.514001
-0.544628
-0.20159
-0.569424
-0.206006
-0.554081
0.264834
-0.371098
-0.164511
-0.416791
2.18508
-2.27795
-1.23225
-0.906237
0.860662
-0.889077
-1.16619
0.459547
1.00931
-1.33842
-1.0026
-0.910932
-1.03387
-0.117088
-0.185242
-1.04349
1.70653
-1.8628
-0.58812
2.24386
-1.66001
-0.0281993
0.895456
0.0733433
0.548506
-0.555231
0.323374
0.645462
0.156814
-1.73282
-1.16007
-1.48908
0.145044
-0.758653
0.632525
0.563167
0.562351
0.491003
0.752142
0.19503
-0.560556
-0.370411
-0.0756975
0.316764
-2.14235
-0.663616
-1.16913
2.34239
-0.192297
1.24324
-0.594069
-0.107646
-0.75298
-0.307535
1.18349
0.299675
1.89487
-1.28034
1.94483
-1.43736
-1.70943
0.566045
0.0355014
-2.1888
-0.265698
-0.795655
0.885387
-0.0415784
-0.0896042
0.652909
0.961629
-0.287411
1.12194
-1.22332
0.634604
1.10362
0.0499053
1.17286
-0.706622
0.752756
0.628503
-1.63241
1.07246
-1.38268
0.692591
0.448183
1.54605
-0.540833
1.01676
1.38084
1.70258
1.67688
1.65014
1.77891
-0.228404
-0.206906
0.554549
-0.348428
0.981247
1.60109
-0.097507
-1.33443
-0.0476096
-0.197781
1.08887
-1.56232
-0.766713
-0.518271
-0.265446
0.424086
0.325862
1.34094
1.38462
-0.713024
0.366329
-0.27123
-1.08171
1.43612
-0.305923
0.403223
-0.178053
-0.356544
1.63776
1.98584
0.438406
0.807673
0.00684704
0.738976
0.602455
1.45313
-1.21467
1.06405
0.800413
1.26168
-0.722932
0.0500724
0.368746
-0.676553
0.438783
0.519339
-0.635394
-0.833381
-0.0587489
0.0777873
1.13313
-0.316822
-0.170785
-0.820876
-2.20466
0.798858
-0.655465
-0.726903
-0.910232
-0.58342
-1.06031
0.0104327
0.00158196
-0.425098
-0.725078
0.0814418
0.0941386
0.447931
1.4089
1.43453
0.637222
-0.25062
-1.19645
0.829582
0.433064
0.250134
-1.21183
-1.71247
-1.24304
-0.936128
0.249962
0.731694
0.680557
-0.566481
1.2343
-1.18884
-1.85868
0.627725
2.82707
-1.2795
0.310284
0.612788
0.780328
-1.84225
-0.579316
0.247119
0.152306
0.971717
0.523823
2.27349
-0.142006
1.32309
-0.821423
-0.449192
-1.57887
-1.36965
0.312326
0.464144
0.196454
-1.71791
0.223239
0.685657
0.595068
0.215769
-0.788953
-0.670919
0.957101
-0.810312
-0.969195
-0.0812767
-0.861072
0.254643
-1.36088
-0.294446
0.947646
-0.469692
-0.163706
0.478173
0.485289
-0.740084
-0.436407
0.574484
-0.215779
-1.08879
0.189492
-1.25859
1.98201
-2.5068
-0.687273
0.10503
-0.630338
1.48652
-0.948479
0.893058
0.545249
-0.594941
-0.00208058
-1.23105
1.15437
-1.51534
0.49335
-0.0113452
-0.930294
0.0267884
-0.526399
-1.40076
-0.442788
-0.105946
-0.584698
0.662298
-1.70403
-1.7899
-1.22087
-0.520962
-0.320787
0.46214
-0.699774
-0.843093
0.319623
0.650221
-2.50654
-1.29023
-0.478055
1.05862
-0.466104
1.38715
-0.179052
1.08882
1.654
0.394662
1.56722
-1.70878
-0.380041
-0.215378
-0.0827549
-0.266824
0.290596
-1.76122
0.722711
1.13725
-0.21757
0.436463
-0.716294
1.8554
-1.11958
-2.16346
0.533675
-0.408889
-0.451372
0.787568
2.16739
2.3513
0.381817
-0.478209
1.93572
0.0880131
1.2915
-1.85805
0.758223
-0.466423
0.710609
1.87338
0.266681
-0.330837
-1.86811
0.395494
0.945494
1.28713
-1.53395
-0.00216504
-0.318583
-2.21557
-0.0211944
0.871127
0.523782
0.244776
1.21616
-0.457254
-0.807789
-0.134591
-1.37724
-0.350246
-0.719405
0.0518004
0.151252
-0.910672
-1.86142
0.269995
2.74244
0.376277
-1.91672
0.714383
-0.470785
-0.648712
-0.666758
0.282328
-1.69352
-1.98989
0.530146
-0.227107
-1.04491
0.9661
-1.20375
1.05914
0.416665
-0.487187
0.164455
0.782997
-2.45884
1.75849
1.43124
-0.386713
-0.995825
1.198
-0.304092
-1.56274
-1.03273
-0.143444
0.244541
0.201806
-0.184693
-0.652754
-0.809864
0.64748
-0.247534
0.67064
0.66504
-1.43474
-0.920753
-0.73936
0.206515
-0.075172
0.724621
-1.43759
2.07095
0.813648
1.48988
-0.133954
-0.147142
-1.4102
-1.29586
-0.375169
0.614969
-1.09962
-0.809066
1.22265
0.357163
2.74514
0.0159929
0.777626
-1.21846
-0.181233
0.927504
0.942948
-1.67041
0.264497
0.469315
-1.75254
0.487528
1.12305
0.100698
2.53188
-0.107434
-1.61309
0.194407
0.311378
0.299371
-1.3674
1.03287
0.581719
0.370848
1.25719
-0.483785
-0.868638
0.878551
-0.882043
-1.65604
-1.27556
0.418049
2.1577
1.11787
0.559967
-0.573804
0.0712657
0.13631
0.687547
0.247136
0.114166
0.753818
-0.960954
0.187423
0.214791
-0.417767
-0.31343
1.52542
1.08751
-0.704899
-2.09556
0.0673511
1.05492
-0.301291
1.75533
-0.902441
0.509956
1.03063
-0.122162
-1.22807
1.26724
-0.421124
-0.969387
-0.813773
-0.047099
-0.0891658
0.141655
-0.855992
1.96263
1.23088
0.0167944
0.895018
-1.8734
0.841505
0.256509
-0.741252
-1.42469
1.29728
1.03601
0.18089
0.639137
-0.864355
-0.439698
0.165994
0.320509
1.47834
0.862468
1.15625
-0.441235
1.42518
0.186305
1.49943
1.02198
-1.1643
-0.156936
1.34971
1.39241
1.17987
0.139143
0.389278
0.49373
0.0491689
-0.502518
-1.1627
1.39536
0.69934
0.452586
1.47659
-1.07625
-0.88365
-0.7122
2.33807
-0.249793
0.642617
1.25534
-0.3535
0.979935
0.343932
0.504223
-0.593232
1.12347
-0.863004
-0.445358
0.99656
1.40965
-0.750844
-1.08465
0.51118
-1.18301
0.159048
-1.16493
2.18911
1.09503
0.504101
-0.0741148
-0.872275
1.15996
0.325982
-0.575945
-1.21564
-0.639432
-0.748424
-0.0128075
0.0772153
-0.3566
-0.287723
-1.07066
0.0016521
-0.273528
0.782501
0.998517
1.54836
0.037138
-0.227912
0.524948
-0.458497
-0.496298
-0.945429
1.62305
-0.864611
-0.241517
-3.37234
-0.484246
0.286606
-1.56625
0.946209
0.0042195
-0.371705
-0.849879
0.0745394
-0.0601972
-1.93081
0.368775
-2.8355
-1.94806
-0.661624
-2.38946
-0.883849
2.12899
0.140881
-0.68503
0.432886
1.5043
0.00343764
-0.421565
2.40613
0.844249
-0.0653339
0.156132
0.57111
-0.776196
0.0516246
0.313416
1.10619
-1.46126
-0.0170587
0.566521
-0.301517
1.12153
1.46059
0.251702
-1.23161
0.374313
0.159987
-1.01977
-0.284781
0.25186
0.0510694
-0.343122
0.783725
0.929827
0.775933
1.4613
1.19067
0.0764822
-0.273268
-1.13398
0.259689
-2.00757
-0.816428
0.842977
-0.448912
0.480722
-0.205157
-1.67577
-1.03233
-0.802477
0.251151
-0.1066
-0.235096
1.4478
0.483184
0.0749498
0.139022
1.15235
-0.00606529
1.15917
-0.192669
-1.02228
1.23676
0.310677
-0.382834
1.03041
-1.87714
-0.734247
2.19099
0.645823
-0.165288
0.575389
-0.562359
-0.135131
0.170556
0.318057
-0.268641
-0.701214
1.23018
0.564057
-0.514623
-0.136167
0.630718
-1.45274
1.00627
-0.359014
2.37836
-0.331869
0.826563
0.16116
-0.466453
0.509848
0.303426
-0.262984
-0.340914
0.881502
-1.48172
1.519
1.04198
-1.96581
0.0309273
2.63991
-1.45554
1.39585
-0.635091
0.309748
-1.2154
1.02124
-1.07282
-0.569585
0.166869
0.211292
-0.792904
-0.554567
-1.40453
0.138049
0.432529
-0.413858
0.0539349
0.366586
-1.72409
-1.10407
0.199859
0.651508
-1.67818
-0.222529
-0.153197
0.762944
-0.946818
-0.166217
0.232483
-0.626945
-0.981255
-0.778961
0.780325
0.581787
-1.17769
0.739431
-1.32615
-0.74631
0.368892
-1.3179
-1.08043
-1.22754
0.185519
0.333734
0.320124
0.542703
0.101285
0.126685
-1.39309
0.346263
0.660378
0.514284
-0.45054
-0.946067
-1.90928
1.57186
-0.388559
-0.657114
-0.0670388
-2.52626
-0.0379868
0.158573
1.03411
-0.419194
-0.622245
-0.484485
-1.82739
-1.10731
-1.68447
0.900146
-1.8137
-0.706281
-0.460448
0.717983
0.564249
0.331267
-0.883978
0.483691
-0.538796
0.0166293
1.80319
-0.851847
-0.761189
0.0815069
-0.153614
1.47003
-0.227715
1.6274
0.458613
-0.607109
0.144303
0.298902
-0.200966
-1.34659
0.883886
1.01197
-0.548583
1.09132
0.0490942
0.184104
-0.00544933
1.65298
0.2779
1.36951
-0.566567
1.15003
-0.513762
-2.10255
-0.330212
-1.09256
-0.041937
-0.103879
-0.1189
-1.4254
0.0112436
0.0143341
0.57075
0.892089
0.644282
-1.11668
-1.01168
-1.99199
0.35165
0.833708
-0.790241
0.076377
-0.0513296
0.898005
1.26729
1.63984
-0.748404
-1.12531
-0.604762
0.877012
0.359382
-2.04987
-0.112456
-1.50951
0.232515
-0.772079
0.914223
-0.909342
0.951924
-1.02706
1.16954
1.17113
-0.760343
-0.791236
-0.719443
0.035781
-1.09034
-0.0796091
-0.385648
1.02262
-0.213493
-0.819447
-0.0346972
0.39902
-0.177008
0.0743784
-0.583459
-0.470524
-1.1751
0.364709
0.427751
-0.538925
-0.537631
-0.78256
1.03415
0.0473764
-0.774499
0.362077
-0.934009
-0.0971258
1.02175
-0.265452
0.780394
-0.529869
-0.18259
0.231773
0.291705
0.179894
-0.994564
0.328135
-0.744228
1.45429
0.0922225
-0.769679
0.656558
1.79814
-0.142496
-0.80774
0.785314
-0.414988
-0.417516
0.667895
-0.0154834
-1.60896
0.935935
-2.42314
-0.0710547
-1.09553
1.19234
0.319979
-0.225226
-1.72574
0.0831397
0.110335
0.609656
-0.0994047
-0.191958
-0.0739107
-1.095
0.811866
0.37337
1.79596
-0.919315
-0.789165
-0.979023
-0.0240041
0.191592
-0.478192
0.604529
0.758942
0.667601
-1.60956
0.466107
-0.740131
0.322821
0.801017
-0.0051628
0.789594
1.38839
-1.52441
1.03281
1.07069
0.170522
-0.715379
2.3354
1.49958
-0.0122455
1.59745
-1.56069
-0.8817
0.788294
-0.340596
0.536502
0.539601
1.39589
-0.351725
-0.590286
1.63267
-0.294235
-1.12008
1.09636
0.87889
-0.384862
-1.36123
1.26232
-0.199699
0.484522
-1.53039
0.199896
1.4241
-0.367985
1.13633
-1.15842
-1.18894
-0.537034
1.02816
-0.362571
-0.525109
-0.743935
1.04958
0.239864
-1.36643
-1.148
0.474169
0.0808043
-1.7748
-0.195081
-0.11937
0.479949
0.618381
-0.724358
-1.21176
1.19314
1.87472
-0.634301
-0.104591
1.14608
0.137422
-0.305578
-0.518652
-0.637174
0.781573
-0.829069
-1.67807
0.323556
1.22104
-0.517726
-0.0721946
-0.549886
0.995465
-0.376941
0.627131
1.35486
0.277479
0.381536
1.68544
-0.863856
0.366867
0.886271
-0.990844
0.469032
-0.466999
0.388853
0.357367
-0.482813
-1.45685
1.55904
-1.47208
-0.709237
-0.753948
1.12361
-0.917735
0.499588
0.298981
-0.464793
-1.0983
1.1112
0.985869
1.09834
0.365699
-0.0992369
-1.68415
0.444547
0.267409
0.215633
0.496299
-0.220203
1.01724
0.0271014
0.578306
0.763223
0.791481
-0.934334
-0.893969
-0.978086
-0.722794
-0.0412053
-0.94697
-0.120314
0.461383
0.883693
-0.761362
-0.224697
-1.12832
0.510992
-0.0532613
0.045494
-0.136134
0.262095
1.05498
-0.0873156
0.595914
-0.356867
-0.929985
0.0770711
-0.132232
-0.234048
-1.90096
1.90667
-1.0922
0.287013
0.373234
1.32619
-0.254716
-1.16599
-1.18919
1.59116
1.4876
0.573828
-0.267861
-1.09911
-0.897883
-0.451153
3.0242
1.35425
-1.50202
0.922938
0.136308
0.19121
-1.59581
-0.72971
-0.585365
0.172811
-0.304505
-1.49546
-2.17364
-0.574038
-0.856338
1.66057
1.02028
-0.535189
-0.243625
1.32551
-1.47034
0.782869
-0.69518
0.957008
0.00283059
-0.375087
-1.1748
0.868531
-0.552881
-0.663636
-1.46687
0.736964
-0.183245
-1.1426
-1.35115
0.583836
-0.961967
0.476154
-0.31676
-0.0133236
-0.150106
-1.49464
-1.19952
-0.729933
1.016
1.24201
0.174349
-0.484344
0.787211
-0.120367
-0.0254879
-1.08754
-0.105493
-1.767
-0.0884131
2.13494
0.175423
-1.26273
-0.764503
-0.0852544
-1.40055
0.0330105
-0.55597
-1.194
-0.790858
-0.34365
0.689916
-0.689309
-1.24668
-0.392023
-0.092705
-0.236178
2.69408
-0.0206132
1.43122
-0.178305
-0.879629
-0.582233
0.178457
1.38556
-0.532809
-0.263717
1.80511
0.115036
-1.03505
0.0291997
3.68806
0.342421
-1.11746
-0.0139432
1.22061
1.90514
1.68937
0.72947
-0.826887
-0.506775
-0.301165
-0.339371
-0.274454
-0.600524
0.721417
1.53839
-0.255394
-0.259137
0.258901
1.27484
-0.836974
-0.914056
-0.121013
1.80223
-0.184251
-0.653295
0.487483
-1.02993
-0.724242
2.35622
-0.131813
0.0569457
-0.405849
-0.804758
-0.774461
-0.319911
1.26155
0.790168
0.490093
-0.907922
-0.471824
1.67526
-0.970364
-0.729316
1.05272
-1.25525
-1.77298
0.444604
-1.23535
-0.108303
1.19586
1.63917
0.105944
2.02287
0.535266
-1.34358
-1.54826
0.232833
-2.07951
-0.824433
0.252241
0.183906
1.36288
0.344107
-0.432481
-1.12637
0.387008
1.99007
-1.20397
-0.162203
1.81961
-0.92363
-0.0849314
-1.79532
0.308721
0.329887
2.1287
1.20414
-0.987213
0.601194
1.13167
0.679846
-0.686737
-0.110284
-0.677951
1.45846
-0.116379
-0.715475
1.69291
-0.380736
-0.833039
-1.09548
0.955264
0.594122
-1.15439
0.731852
0.924249
-0.429175
-0.447914
-0.08544
-0.769043
0.35772
0.808447
0.731407
-2.13927
-1.62944
0.392646
1.38487
-0.845283
2.17588
1.56195
0.956457
1.6961
0.582638
-1.04984
1.5783
0.575849
1.37957
-0.549933
-0.312113
-0.543755
-1.9062
2.01085
0.623901
-0.387052
2.25264
0.372546
-1.0739
2.20797
-0.26214
1.69501
0.256453
1.42925
1.58842
1.00032
-0.0671184
1.20424
0.627731
-0.0277554
2.12706
1.79654
-1.09202
2.14841
0.176491
0.235437
0.265348
-0.580265
-0.070152
0.181923
0.0706581
0.114239
-1.06436
-0.61775
0.462488
0.357407
-0.309253
-0.667796
-2.39397
-0.0344142
-1.23115
0.893624
0.322255
0.268687
-1.90444
0.704467
-0.483997
0.525375
0.766128
1.43818
1.10826
-0.143194
-1.00573
-0.59988
1.47179
-0.0656021
1.23098
1.87682
-0.0362719
0.0140559
2.3416
-0.0277612
-0.500388
0.869306
-0.604832
1.82342
1.31758
0.157843
0.201425
-0.26933
0.765755
-0.00216149
-0.255824
-0.469059
-0.13924
0.528416
-1.11293
0.772005
1.69838
-0.317797
0.306343
-1.19649
-0.494616
0.356881
-2.5227
0.683978
1.00832
-0.059475
0.661844
-0.655602
-0.218562
1.13714
-0.688303
-1.13192
0.315295
1.52414
0.0505676
0.529693
0.861219
1.04963
0.47954
0.164493
-0.775202
0.725662
-0.700647
-2.69005
0.540546
0.0405838
0.151951
2.78151
0.689901
1.74734
-1.41459
-0.619255
0.935736
-0.922625
0.0663897
1.83792
2.0283
0.689251
-1.77314
-1.11885
0.791298
-0.24935
1.74335
-0.903108
-0.0336598
2.12711
0.582325
0.300376
1.30014
-0.235663
0.257285
0.762379
0.505886
0.454534
0.460668
-0.845046
-0.468399
1.39684
-0.559083
0.591171
1.07254
0.300572
0.386556
-1.51566
-0.177328
-1.09767
0.0688123
-0.269719
0.74313
0.608563
-1.0362
1.84663
1.50468
0.327175
-0.197074
-0.733538
-0.657676
0.611274
0.282116
-0.8882
-0.163007
0.165015
1.25878
-0.707795
0.635614
0.150411
0.73229
-0.439392
-0.172448
-0.0737689
-1.82151
0.0932028
-0.472251
0.357034
-0.409399
-0.705175
0.13977
-0.725974
0.993436
-1.48348
-0.448704
-0.141127
-1.58226
1.44596
0.754408
-1.57547
1.70164
0.830903
0.764478
1.0155
0.750195
-0.546282
-1.05209
2.25639
0.236705
-0.160114
-1.58643
-0.367275
0.949183
-0.227774
0.272261
-0.644667
1.52161
1.99527
0.671375
0.349476
-0.383167
-0.768874
-1.38207
-0.365632
1.35113
-0.806326
-0.996131
0.274478
0.744157
-2.01442
-1.7083
1.74392
-0.487212
0.17918
0.690114
0.151153
-0.786235
0.800371
-0.779972
0.130924
-1.23196
-1.25821
-1.21357
1.67723
0.507531
0.533049
-0.426185
0.887216
0.0325416
-0.138025
-0.529523
1.68076
-1.52353
1.37246
0.194573
0.0160164
0.419885
-0.511879
0.627807
1.16062
-0.692899
0.0139106
0.256553
0.709305
0.227695
0.369424
-0.726975
-0.426828
1.33481
0.204247
0.0855956
0.217229
0.346071
-0.488576
0.996737
-0.319145
-0.231928
-0.874012
0.559055
2.21457
-0.0868532
-0.851225
1.52108
-0.888142
-0.954193
0.161132
-1.234
1.14506
-0.077481
0.0309418
-2.57065
-0.935155
-1.11168
-0.764467
-0.53596
1.24182
-2.04676
0.46478
0.212598
-0.693759
-1.45272
0.299616
0.760924
0.51857
0.477512
-0.122297
0.356959
-1.28382
1.65213
2.23637
-0.794904
-0.364475
-2.11325
-0.824255
0.858011
0.121663
0.395843
1.17488
1.52252
0.127424
0.858027
1.06527
0.423262
-0.91373
-0.375128
-0.226077
-1.2499
-0.453466
-0.86933
-0.658963
0.250661
-2.10089
-0.807578
-1.35114
-0.99949
-0.438241
-1.72798
2.10461
1.81031
0.885633
0.747805
1.11333
-0.258961
0.135648
0.0765388
-0.590714
-1.60029
1.6257
0.076763
-1.09542
-0.47464
2.27915
0.104415
1.3896
0.071106
-0.385751
-1.68389
-1.28832
-0.150284
0.0319649
0.747171
0.514276
0.107587
1.36817
-0.226568
0.956701
0.089967
-0.788064
0.42595
0.167125
-0.848591
-0.996765
1.00872
0.966591
-1.26914
-2.15465
-1.69486
0.741135
-0.150664
-1.99202
0.857694
0.253992
-0.873605
0.284716
0.72199
-0.335281
-0.718451
-1.08007
1.58236
1.08778
-0.0934017
-1.2915
-1.15121
0.524905
-1.50627
-0.472133
0.171792
-0.513424
0.263503
0.153048
0.129485
1.24431
-1.36045
-0.0363447
-0.134166
-0.0587277
-1.86705
-0.844056
-0.739994
-1.79076
0.741634
-2.14597
-0.915941
-0.396725
0.638142
0.374686
-0.233715
-0.100769
0.882126
-0.253048
-1.45155
-1.44383
0.616414
-2.14395
0.100482
1.04193
0.2735
0.11528
-0.575853
2.2719
-1.81399
0.0418653
0.545887
-0.673226
-1.47321
0.610334
-1.37952
0.988159
1.75149
0.203673
1.51858
-0.180969
0.975266
0.842913
-0.105004
-0.625717
-0.734484
0.508779
-0.436397
1.03332
1.54579
-0.451424
-0.632403
0.544723
-0.613917
-0.199356
-1.55018
-0.528562
0.42751
0.382391
-0.548328
-0.137069
-0.0636563
-0.986276
0.7382
-1.28751
-0.509669
-0.129046
-2.17658
-0.308389
1.97279
0.60483
-0.452
0.825185
0.847775
0.557412
-2.41464
0.632166
0.189623
-1.98937
-0.438844
-0.284578
-0.375881
-0.208533
0.169198
1.42535
0.34957
1.49849
-1.93289
1.15741
0.994879
0.146785
-0.0374349
0.830241
0.338859
0.321721
-0.937203
-1.43654
-0.564484
0.0946163
0.861529
-1.28967
-0.00551071
-1.38585
-1.09619
0.512228
0.450705
-0.951997
-0.606499
1.82727
1.18151
1.68329
1.24686
1.44531
-0.1571
1.45879
0.305997
0.14366
-0.305989
0.208732
-0.959517
0.881736
1.51404
-0.356104
-0.391417
0.217535
1.58589
-1.8219
-0.129479
0.516162
0.559061
-0.727643
-0.325597
0.200009
-1.01286
-0.686665
0.305152
0.150292
0.808211
-0.260673
0.437869
-1.35248
-0.938503
-1.01719
1.74839
-0.0258007
-0.278934
0.0271791
-0.471565
-1.32203
-0.929339
1.54141
0.662265
-0.350384
-0.148641
-1.27288
-1.18008
0.441226
0.175773
-0.805701
0.663233
1.15391
0.0589904
-0.279833
-0.35446
-0.62079
-0.351424
-2.54977
0.656163
-0.772944
0.690705
-0.156405
1.21205
-1.53253
0.554168
0.201472
1.4394
-0.330142
-0.88304
1.85885
0.174022
-1.22378
1.20576
-0.500248
-0.395749
-0.416524
0.297374
-1.44104
0.579562
-1.29472
-1.30061
0.844482
-2.18323
-0.925874
0.83024
1.53631
-1.30232
0.194632
0.781509
0.00798554
1.10353
-1.31632
-1.06572
0.222895
1.08784
-0.837098
-0.997969
2.18172
-0.261272
-0.321127
0.638468
0.653325
1.05488
0.448215
-0.903915
-1.20251
1.94789
0.197118
-0.27364
-0.213074
0.464538
0.0586833
1.07229
-0.51045
1.17501
-0.964186
0.418167
-0.503042
-0.0228995
-1.51668
-0.0228927
-0.937789
0.779093
0.162898
-1.12556
-0.463007
-0.509432
0.21249
1.26101
-0.0953825
-0.222961
1.17952
-0.226251
2.1382
0.150992
-0.872077
0.894877
1.84925
2.79579
-2.13664
-1.4673
2.13075
-0.181375
1.0107
1.50032
-1.3264
1.1118
0.338237
0.0607031
-0.994524
-0.941683
0.774196
-0.23761
-1.52361
-2.06543
-0.0893523
-0.342758
-0.640486
1.43119
0.25067
1.11329
0.38091
-0.0621536
-0.600545
0.861064
-0.611467
-1.39381
-0.840376
1.37749
-1.04532
-0.536544
-0.259521
-0.188626
-1.36711
-0.677515
1.10799
-1.36988
-0.967432
0.387096
-0.664503
0.467229
-0.11885
0.266981
-0.414374
0.788394
-0.563331
-1.31664
2.16724
0.985123
-0.678416
-0.536015
0.11302
-0.419475
0.0260616
-0.252504
-1.57205
-0.866584
0.279283
-0.743498
0.678832
-0.565133
0.108723
-0.550054
1.41581
-0.932755
1.46282
0.0634176
0.675332
-0.772459
-0.612758
0.0994178
-1.33847
-1.26799
0.738406
-0.828133
-0.788187
0.157666
-0.471331
-0.914311
-1.75927
-2.08015
0.742667
1.50694
-0.645452
-0.312609
-1.47334
1.59856
1.76347
-0.19669
0.8541
-0.86357
-0.712401
1.09372
0.322772
-1.43412
-0.527692
-0.130359
1.4044
0.728266
1.06465
2.2842
0.0352376
-0.30382
-0.207957
0.582927
0.332312
0.692135
-0.516746
-1.82903
-0.255804
0.0219162
0.387475
0.723809
1.00656
0.690209
-1.0909
0.216954
-1.54396
0.236464
0.828155
0.552722
0.110085
0.366786
-0.182864
-0.532167
-0.232088
0.0175336
-0.204186
-0.00582195
1.91003
-0.0801241
1.20895
-1.23555
-0.235151
-1.89002
0.0231434
1.01975
0.939999
-0.373188
-1.60638
-0.668244
0.168584
1.07571
1.79691
1.02238
0.384629
-0.0113423
1.02783
0.239084
-0.75079
-0.638309
1.50777
-0.913816
0.0770563
1.08374
-1.2189
-0.298322
-1.0896
1.25491
0.88501
-0.460637
0.129875
0.460529
-0.933861
-0.685022
-0.341942
-0.736116
0.18849
0.659368
0.639813
-0.108029
0.615894
0.676409
0.820628
-0.0688054
1.82736
0.683163
-0.806566
-1.17662
0.849936
1.27924
0.173727
-0.581778
-0.166831
-0.205658
-1.39871
0.763861
-0.262077
-0.526857
-0.0327751
0.353351
-0.507413
-1.15416
0.387896
-0.690387
-0.554658
-1.41298
-0.0812096
1.24018
1.30833
-0.881461
-0.0838287
1.85794
1.56555
0.434475
0.670534
0.316393
0.580245
1.48705
0.381323
-0.586156
-1.33237
1.74167
-0.926164
1.02546
0.909735
0.802627
0.0395122
-0.295396
2.28784
-1.47063
-2.46165
1.08816
-0.190998
1.40294
0.116387
2.53494
0.0227896
0.290827
-1.44317
0.731801
0.326774
-0.604174
0.471986
0.0666115
-0.00355766
-0.24429
-0.328934
0.240886
-1.20888
0.185859
-1.52678
0.860386
1.04354
0.946233
-0.515864
-0.515397
-2.25261
-0.566252
-0.0734547
-0.306627
1.34701
-0.344685
-1.03979
0.40584
-1.1813
0.292166
0.589343
0.556418
0.996638
0.318289
0.685154
-0.582395
0.906711
0.125688
1.70381
-0.813438
-0.733993
0.554262
-1.18965
-0.400087
0.255672
-2.2506
0.390096
0.178427
1.49454
0.00603151
0.54865
-0.88471
-0.198232
0.851661
-0.471588
-2.271
0.207514
1.6052
-0.482442
0.452147
0.627879
-0.0356576
1.08283
1.04192
-0.157957
-0.805055
0.520556
-0.881602
-0.910165
-0.249728
0.870143
0.710976
-0.0352562
-1.67216
0.809073
-0.669937
-0.936597
-1.96182
1.31855
-0.701818
0.940261
0.081328
0.382116
0.131974
1.25171
0.76081
-0.293231
-0.27607
-1.69345
-1.62886
-1.37056
1.75361
-0.850809
-0.601516
0.0690064
0.883831
1.98484
-0.761364
0.706337
-0.998211
-0.403317
0.353593
0.423921
-1.83635
0.700144
-2.77887
0.602833
1.03383
-0.809433
-0.0244519
0.437717
0.911603
0.138219
-0.343841
1.32067
0.247421
0.38805
0.940948
0.166562
-1.79125
0.0804925
0.36631
0.615992
1.15599
-0.808949
3.2026
1.18223
0.451438
-0.129752
-1.24437
1.65886
0.147037
-0.614686
-0.0325901
0.26184
1.00204
0.6335
-0.579744
-0.836933
0.512699
-0.0455647
0.10524
-0.867673
-0.13935
0.233651
-1.73219
-0.878174
0.0175
0.7494
0.463387
1.27651
-0.735493
0.832102
-1.86892
0.48984
-0.425138
0.178402
1.11449
0.317382
-0.00363258
-0.527059
-1.0832
1.11159
-0.176835
-0.60043
0.448926
-1.13924
-0.805857
-0.886923
1.43395
-0.56144
-0.193439
1.7782
1.49008
1.14379
0.940026
-0.253189
-0.323828
1.41882
-0.0321421
-1.21203
1.50113
0.647515
1.92285
1.54344
-1.00447
0.592875
0.288909
-0.862016
0.0075835
1.56074
1.56062
1.6699
0.00517191
0.50084
-0.706852
0.0826699
0.175082
1.32593
0.654664
0.584684
2.58411
-1.2158
-0.0470036
0.397707
-2.23305
-1.63471
-1.27248
-0.71528
1.25742
-0.0118812
0.0838463
0.322846
-1.15569
1.72443
-0.694276
1.79013
0.889369
1.09879
-1.02902
-0.0370354
1.8806
0.483482
1.56603
0.819641
0.152341
0.229999
0.122169
-1.2623
-0.226462
1.52898
-1.16068
-1.39533
1.26364
0.132589
-0.965763
-0.00864808
-0.869124
2.08004
-0.355875
0.751976
-1.08265
-0.116294
0.752438
-0.392121
-0.487996
-0.854142
-0.185079
1.00881
-0.800836
-0.0512371
-1.39155
-0.317947
-1.10919
0.379215
-2.32972
-1.30854
0.625891
-1.87549
1.03818
1.49448
-0.333746
0.135215
-0.82582
-1.29745
0.685084
0.0199831
1.22839
-0.0572952
-1.10352
0.557409
-0.443121
-0.37258
-0.621988
-0.676207
-0.0329995
-1.31981
-0.780801
1.73064
-0.547388
0.938759
1.57794
0.944416
-0.403466
-0.453305
-0.354521
-0.573451
1.03908
-1.17642
-0.248781
1.0922
1.11304
0.197388
-0.718115
0.764484
-0.465187
1.63491
-0.496684
-1.02411
0.439858
-0.237927
-0.626779
-0.368813
-0.892474
0.385307
1.78609
0.202504
-1.39135
-1.27057
0.294939
1.56477
-2.39431
-0.920794
0.162795
0.270345
-0.186724
-0.781002
1.07392
-0.0775325
0.134854
-0.929111
0.786103
-2.39239
0.996554
-0.827445
0.323808
0.639137
0.218738
0.471407
0.609969
1.28086
0.135398
0.511158
-0.978343
0.106062
-0.216639
-0.605095
1.60811
0.632745
-1.21322
0.0155377
-0.948703
1.41827
-0.665668
-0.00815823
0.0206474
-1.97519
-0.977824
-0.853182
-1.0028
0.312582
-0.274044
-1.24809
0.223729
1.04934
0.85688
-1.87337
1.07786
0.240006
0.608285
-0.498625
-0.806791
0.467692
0.200357
1.03186
-0.855662
-2.26141
0.392265
0.612124
1.31471
-2.27819
-1.43264
-1.34916
-0.782351
-1.31919
0.297896
-1.3481
-0.461817
0.635941
-0.52075
0.894122
0.0737422
-2.47527
2.41319
1.03822
-1.61445
-1.64542
0.155442
-0.524915
1.37175
-1.55075
0.203945
-0.283405
-1.64168
0.513588
0.678427
-0.0840262
0.185442
0.47807
0.38656
-1.91764
-0.46114
-0.322118
-0.287178
-1.04989
1.5125
1.3141
0.275148
-0.0321898
-1.58586
-0.0157594
-0.00421111
-1.68634
0.421195
0.552636
-0.588473
0.336756
1.18487
0.59162
-0.402924
-0.398552
0.00488078
-1.45603
0.0739101
-1.15697
-0.906726
1.74204
1.38226
-0.832498
0.211348
-0.967164
0.78052
1.6377
-0.543562
0.780139
0.924848
0.795228
0.581792
-0.0807077
-0.30709
0.882354
0.671302
-0.921825
-0.215007
0.0385291
0.374217
0.318207
-0.483547
-0.741347
-0.272541
0.473336
0.459474
-0.923307
0.0336658
-0.0641887
-0.446923
0.0947098
0.637071
0.0536714
0.229219
0.541538
-0.29114
-1.59619
-0.448598
0.650599
-1.0433
-0.42441
0.586985
-0.48517
0.417764
0.296352
-0.681366
2.4358
0.126133
2.74935
-0.587806
-0.0673352
-0.646202
2.03389
-0.53793
0.148328
-0.800819
2.42624
-2.13591
-0.42435
0.243409
-0.883702
-1.7863
0.452398
-0.361294
-0.377594
0.0777266
-0.186182
-1.09863
0.811908
1.24317
-0.96965
0.843717
0.595223
-0.577992
-0.861352
-1.50304
-0.312598
-1.92399
-0.862984
-0.068154
-1.64485
1.17725
0.426555
0.593963
-0.205209
-0.0782516
-1.66429
-0.183203
1.59292
-0.772915
0.996428
-0.285175
-0.353767
-1.90266
1.55459
-0.928747
-1.88159
1.20732
-0.302937
-0.133783
-0.954849
0.647888
-0.0749609
-0.533852
-1.47183
-0.299445
-0.716628
-0.552738
0.053643
-0.0870938
0.167787
0.316319
-0.310819
-0.3268
-0.60583
-1.66356
-0.654404
0.231682
0.687344
0.984897
-0.81508
-0.209246
1.09725
-0.231251
0.555979
0.147305
1.18556
1.27898
-0.40031
0.0202621
-0.932383
-1.50042
-1.24048
1.19543
-0.639466
-0.435832
0.898049
0.0620645
-1.0272
-0.472079
-0.747526
-0.409882
-0.236348
0.619077
0.23084
0.0636913
-0.292317
0.532685
-0.623814
-0.128112
1.3453
-1.99698
0.140556
1.20393
-0.344712
-0.538757
-1.55925
-0.51508
-1.73457
1.60412
-0.103029
1.37638
0.289319
0.895634
-1.19837
-0.229043
-0.983672
-0.533593
1.70989
0.161222
-1.2072
-0.368839
-0.438672
0.813713
-0.350162
-0.740849
-0.781539
-0.783658
-0.251292
-0.131698
0.59893
2.55352
-0.647109
-0.742748
-1.07517
-1.00853
1.69047
0.187665
0.0513391
-1.49017
-1.24223
0.516762
0.834963
0.586714
-0.759938
0.222188
-1.27041
0.870199
-1.20882
0.80193
0.675372
1.27556
1.05618
0.85675
-0.359898
0.487484
-0.692265
0.603822
-0.0173347
0.286593
0.231714
-1.09764
-0.570108
-1.28821
0.355448
-1.30993
2.16906
-0.155728
0.685939
-1.28101
-0.706596
-1.1786
-0.428111
0.984008
-0.419771
-1.59536
0.139336
1.26441
0.698587
0.800873
1.11371
0.513409
-0.408078
0.563232
0.727038
-0.354525
1.34218
1.13809
-0.409332
-0.564678
-0.880899
-1.39965
-0.413547
-1.09413
0.990536
0.571695
0.800905
-0.504094
-0.0349655
0.725037
-0.734479
1.06955
-0.260955
1.64368
1.32952
0.723019
-0.066197
0.864543
1.29921
1.31071
0.432385
0.472451
0.322023
0.806628
-1.73697
1.41418
-1.15431
0.219842
0.52529
-0.38316
-1.68975
-1.03075
0.50948
1.0825
-1.07315
-0.643396
0.510306
-0.738357
-0.0729156
-0.322359
0.883931
0.440062
0.159109
-0.528166
-0.929342
-1.05206
0.111408
-0.627056
1.45461
0.577484
-0.297703
0.519709
1.69066
0.3975
0.186367
-0.70483
0.20219
0.815244
-0.262057
2.94585
2.69037
1.30082
-0.00337283
-1.00872
-0.428474
0.36525
1.367
1.68944
0.744044
-0.0425728
-0.340152
-0.226515
-0.903446
0.693538
-0.651573
2.71366
-0.388357
2.092
-0.787777
0.045563
-0.105455
1.34225
0.0560962
-0.202737
-0.31961
-0.0874812
1.01034
-1.22706
0.41798
1.24291
-0.769979
-0.5376
-0.344459
0.638797
-0.640377
0.186849
-1.29281
0.62911
1.25429
-0.227629
-0.537001
-0.691729
-0.140758
-1.59623
-0.208721
0.533563
0.747714
-1.27668
0.40512
1.16518
0.396631
1.83188
-0.850129
-0.186058
-0.0134922
-0.0627118
0.00524026
0.000659442
-0.583441
-1.80087
-0.0878906
0.229135
1.24761
0.620488
-0.441391
-0.371464
-0.847511
-3.00084
-1.03289
0.259331
-2.4542
0.294003
0.197232
-0.375262
0.555681
-1.11338
0.959984
0.708958
-0.356586
-0.31562
1.21473
1.0449
0.276182
0.454225
0.312234
-0.345448
-0.0892109
1.99399
1.09438
-0.458171
-0.941656
-0.0113131
1.19899
-0.0607375
-0.206467
1.27154
-0.899934
1.7671
-1.9114
-0.215145
-0.0296876
-0.758186
2.02993
1.38791
0.103919
0.527287
-0.0971334
0.0562099
0.106285
-1.04596
-1.09459
0.712977
0.26851
-0.598133
0.923024
-0.0951239
0.006957
0.0656696
-0.191502
0.180341
0.584391
-0.513508
-1.96251
1.26539
0.0431096
-0.551331
0.385809
0.587809
1.13052
-0.165574
-0.848465
-0.885493
1.105
-0.779117
-0.706469
0.950651
0.15652
0.803759
1.06827
1.12687
1.47493
0.557787
1.45136
0.189921
0.436513
-0.12296
-0.857825
-0.0958965
-0.855205
-1.13895
0.150302
0.919284
0.904036
1.36859
0.685683
0.0339799
-0.3603
-1.66086
-0.597678
-0.0733001
-0.238039
1.05728
1.02292
-0.0650983
1.49149
-0.640495
-1.14536
0.00359532
-0.36644
-0.157991
0.761666
-0.193369
-0.885474
0.448535
0.814082
0.0880344
0.955295
-0.172548
-0.391797
2.13219
1.38515
0.67266
0.183019
-0.324598
0.11977
-0.95475
-1.41973
1.13246
-0.173639
-0.129767
-0.922228
0.159347
0.636322
0.862958
3.36886
1.43699
1.56668
-0.208854
0.0194757
-0.471966
-0.842134
0.217189
-1.13436
-1.04524
1.20419
-0.111312
1.10757
-1.56978
-0.262612
0.407171
-0.626667
0.931551
-0.540658
-0.382303
-1.30357
-1.3008
-0.0614608
-1.17677
-0.153965
-0.606962
0.496199
-0.512753
-0.513276
0.164674
-0.0499702
-1.34059
-0.105065
0.861093
-0.65148
-1.76653
-0.145383
0.371854
0.095747
0.0813858
0.322127
0.168816
-0.179973
0.166221
-0.178339
-1.24795
-1.50268
-0.704924
-0.220802
-0.405972
1.60202
0.223952
0.0431015
-0.286549
0.394103
-1.22603
-0.473485
-0.233843
0.0360087
1.2875
0.235015
2.65093
-0.684035
0.755414
0.946361
-2.353
-0.399261
1.16488
-1.09866
1.13297
0.0486605
0.479843
0.20859
0.455127
1.32006
-0.744986
-0.418718
-0.0827367
1.65964
0.0333381
-0.690859
-0.661977
0.757899
-0.770801
1.21098
0.525486
0.866582
0.36739
0.926863
0.52272
-0.129534
-1.43309
0.442729
-0.0434433
0.882828
-0.224981
-1.5667
-1.32881
1.73422
-1.82359
-0.0280044
0.226177
-1.51401
0.876576
-1.66266
1.07483
-0.673219
1.13399
-0.477336
0.314811
2.31952
1.15354
1.21021
-0.381969
-0.501092
0.157911
0.41
-2.63479
0.493431
-0.575608
0.528749
0.105383
-2.81178
-0.252237
-1.38489
-1.129
1.31703
0.256807
-0.565165
-0.182308
-1.4632
-0.799956
1.46721
0.153523
-0.339353
-2.4776
0.503897
0.386722
1.38248
0.0327797
0.374068
1.28681
0.569888
1.40951
0.727656
0.829245
-0.875706
0.147818
-0.795381
0.621913
0.542766
-0.278031
-1.70278
1.26699
1.41337
0.690418
0.243351
-0.629766
1.09854
1.65132
-2.45639
1.12264
0.755296
-0.538401
-2.389
-0.426246
0.794752
0.793068
-2.39312
-0.675481
-0.979488
0.176918
0.243531
1.32817
-0.998338
0.0823178
1.21181
-0.417847
-0.743119
0.132718
0.0490217
0.778452
0.430294
1.65203
-0.731296
-0.284036
0.269762
-0.735345
0.290598
2.02168
0.973865
0.729195
-0.672131
1.14411
0.79496
0.549239
-0.0563587
0.425507
0.111145
0.166848
-0.908516
1.29443
1.62357
0.0837978
-0.118415
0.2665
-0.222419
1.05921
-0.187177
1.96569
-1.53145
-0.638453
-0.291959
2.15453
0.341435
0.286893
1.06946
1.00037
0.309147
-0.748617
0.0205816
-0.598275
0.843827
0.246523
-1.32809
2.26737
-1.13589
0.257897
-2.06678
0.892064
-0.52396
-1.00251
0.181216
0.703883
1.70778
0.0664177
-0.673375
-1.32928
2.10922
-0.631976
0.535824
0.577089
-0.0599253
0.848311
-0.709715
0.654451
-1.93053
-0.91902
-0.863059
0.0580306
-0.812265
-1.39815
0.819074
-0.296094
-0.427708
-0.280666
0.770407
-1.48265
-0.0974601
1.25433
0.530349
-0.482234
-0.285142
-0.283871
1.14333
-0.345983
-0.0104656
0.481158
0.0782594
-1.59077
-0.707673
2.54957
1.57458
-1.06911
1.48255
0.0758934
-0.961881
-1.08529
0.496848
0.290548
-0.8075
1.90337
1.09528
-0.255285
-0.841155
0.601593
-1.00002
-1.32815
0.722918
-1.48457
-1.30172
-0.298441
1.72787
1.77992
-0.304802
-1.17064
-0.438609
0.035141
-0.58389
1.6851
0.318489
-0.242628
-0.539894
-0.406023
0.561133
-1.99324
0.345314
1.40708
0.75963
-1.60244
0.258186
3.06961
2.16175
0.0256766
-1.88491
0.744844
-0.0105096
-1.1611
1.48985
2.27777
-0.850048
0.824974
-1.28419
0.373028
-0.238751
0.53884
1.69894
-0.861185
0.6023
-0.682246
1.64828
-1.42729
-1.09046
0.357894
0.699448
-1.61915
0.978571
-0.224813
-1.21166
-0.64282
-0.330807
-1.54508
0.712537
-1.75511
1.01083
-0.225053
-0.0934066
0.378383
-1.36716
0.470005
1.33032
1.32734
-1.49251
-0.48352
-1.83636
0.627468
0.42184
0.180911
2.01653
1.37811
0.0544613
0.200809
-0.601033
0.724991
-1.44327
-1.1082
0.961928
0.49231
-1.12781
1.14469
-0.187846
-1.17802
-0.341219
2.60185
0.234927
-0.959973
-0.342401
-0.305299
1.18487
-0.381463
0.590699
-1.43358
-1.5387
0.449994
-0.51943
-0.0580266
0.108814
1.13327
-0.956405
0.109881
1.05054
-1.22811
0.578267
-0.1608
-0.626151
-1.36003
-0.475505
0.229644
-0.794543
-0.390022
0.150584
0.783704
-0.299154
-0.665541
0.44739
-0.75281
0.549685
0.698038
0.483287
-1.45047
1.11793
0.799311
0.00795406
-0.0751983
0.583408
2.2427
-1.44193
-0.909114
-0.276805
-0.423654
-1.34566
-0.881679
-1.04171
-2.7056
0.752121
-1.55725
-1.30503
-0.0118349
-0.0758353
-0.845245
-1.06148
1.00396
-0.390897
1.83272
0.64891
0.975999
-0.170641
0.757584
2.32854
-0.31094
0.874104
-0.578424
-0.801504
0.0788563
-0.405669
-0.976567
1.58247
-0.176742
-1.23224
-1.19037
-1.20647
-0.542398
0.685569
-0.00388828
1.26681
-1.53576
-0.525649
1.42601
-0.244807
-0.628343
1.97797
-0.134643
-0.703233
1.6549
1.70968
-0.259044
1.78609
1.19123
0.70145
1.90342
-0.349193
-0.899669
-1.18655
0.866012
-0.164105
0.860621
-1.37843
0.58868
-0.340661
-0.992922
0.855045
0.17314
2.38752
0.995923
-1.36082
-0.698549
-1.37166
0.106931
0.329805
-1.38013
0.213879
-0.679674
0.949813
-1.57804
-1.11855
-0.902235
0.161956
1.81399
0.363184
0.555389
0.447012
0.417569
-0.134407
0.578874
2.0922
0.160207
1.04679
0.366067
-0.617152
-1.35699
-0.447891
0.592699
0.752571
-0.0601007
-0.406805
1.00788
-1.04558
-0.416244
-0.290798
-1.00482
-0.173815
0.533506
0.728565
-0.843044
-0.41907
0.350065
0.880042
1.23144
1.85997
-0.420114
-1.65519
0.907323
0.563581
0.475315
0.267482
1.45678
-0.655033
0.029048
0.212504
0.701053
0.811499
-0.200142
1.3349
-0.274824
-0.0543215
-0.371523
3.07401
-0.0742719
-1.08472
0.830645
0.524939
-1.62966
-1.22773
-0.511427
1.97737
1.53395
1.1192
0.0936254
0.547903
-1.72449
0.385823
-1.41416
-1.65752
-0.757373
0.804372
-1.5881
-0.342447
-0.369377
-1.55493
0.413891
-0.0656774
-0.349379
-0.847317
0.851622
0.28781
0.266868
-1.94077
0.0999726
-1.12851
-0.289672
-0.17573
1.2527
1.28449
-0.934033
0.0241532
0.49226
-0.208029
-0.854702
0.886962
-0.104401
1.95777
0.191527
-1.11592
-1.11492
-0.903545
0.895488
0.376083
-0.0211598
1.34882
0.751794
0.504863
-1.77124
0.252123
0.0943928
-1.01796
1.0283
-1.69507
1.30033
0.15673
2.23754
0.0484862
-3.0141
-0.851095
0.191398
0.337018
0.433571
0.686023
-0.0437655
0.57853
0.726367
-0.496627
-0.0413253
-0.324278
1.72101
0.00531654
-1.25915
0.693461
-1.29264
-0.183801
-0.409143
1.0425
-0.524821
0.81203
1.66639
0.879715
-1.29356
0.910717
-1.55123
0.327491
0.34572
2.46404
-0.169686
0.675052
-0.881503
-0.532515
0.968246
-0.799206
0.524986
0.514548
1.11587
1.11224
-1.19234
-1.51373
0.270755
-0.358774
1.36303
-0.0588272
-0.988422
0.53795
0.726894
-1.59923
0.723919
0.275336
1.98738
-1.82425
0.363437
-0.7656
-1.77001
-0.733515
-0.154673
1.02722
-1.31261
1.71897
-0.817949
-0.722639
-0.0924556
1.83848
0.402137
0.270277
-1.58513
0.842743
0.467606
-0.169585
-1.84948
-0.0239284
-0.697586
-0.30655
1.13963
-0.854035
1.01357
0.254513
-1.18424
-1.18456
-1.73376
-0.408682
1.00006
-0.0675221
0.138723
-1.77001
-1.74937
-0.215272
0.468524
-3.21015
-0.79157
-0.020271
0.267679
1.20908
0.266131
1.88709
1.68367
-1.00941
0.680243
-0.74892
1.33243
-0.0265071
0.0959816
1.13893
-0.0323087
0.241542
0.130582
-0.591053
0.529572
1.41493
-0.704865
-1.06643
-2.4351
-0.444316
-1.0808
0.522468
-1.66288
-2.07372
-0.223811
0.75957
-0.126549
-0.22752
-1.54705
-0.723616
0.183937
0.478952
0.396421
0.222267
-0.258476
0.330745
0.0869761
-0.645559
-2.12885
-0.369954
0.00592323
0.560986
-1.37548
-0.940257
1.48129
-0.613023
2.0803
0.426461
-0.165653
-1.23429
-1.25214
-0.115691
-0.835427
-0.301695
0.880892
-0.820162
0.420095
-0.398275
0.0456696
-1.12564
0.623963
-1.57654
0.193542
0.835647
0.999634
-0.435964
0.503847
0.12504
-0.948394
0.698197
-0.860245
-0.0108743
2.126
0.549559
0.521314
0.75549
0.0933266
-0.894756
0.801049
-1.49176
-1.61665
0.485877
0.559304
-0.550563
0.301068
0.109965
-1.94601
0.24741
-0.22258
0.314621
0.217966
-0.826258
-0.702742
-0.481704
0.241896
-0.902233
-2.11596
-0.0822605
-0.843947
-1.15217
-0.758489
-0.198454
-0.523844
1.40259
-1.1578
-0.525494
0.336116
-2.47065
1.0819
-0.0310139
0.552435
2.84589
-0.0848014
-1.22139
-1.13914
0.266051
-0.389655
-0.889186
1.3848
-1.6845
-1.16795
-2.08286
-0.442129
0.486966
0.729898
-1.53153
-0.123565
-0.32054
-1.56898
0.789655
-0.488478
1.2301
-1.29812
-0.647253
0.36621
-0.446412
1.18868
-0.924846
-1.70247
1.0699
1.64773
-0.958987
-0.758081
-0.324842
-1.20978
-0.358348
2.04617
0.656885
-2.52251
-0.307229
-0.978816
0.39262
1.50739
-0.115179
-2.06196
-0.283434
1.92283
0.259597
0.116733
0.59207
-1.14438
2.15073
-1.32821
0.366835
0.348575
-1.21861
-1.62765
-1.76155
-0.146531
0.268303
0.549109
1.95388
-0.198788
-1.17129
-1.1255
0.284029
-1.62069
-0.135032
0.762196
-1.3828
0.685495
-0.372209
-0.546708
0.469
0.944067
-1.01565
0.150709
-0.59521
-0.916309
-1.91984
0.578529
-1.60519
1.1638
1.65503
-0.0558906
0.202344
-1.09668
0.608451
0.472586
-0.214843
2.03971
0.267679
0.304285
-0.984601
1.52778
-1.63093
-0.631754
-0.524023
0.714221
-1.67012
-0.715476
-0.948123
0.907622
-0.880107
0.733762
0.60909
-0.4999
-0.240504
0.412705
0.620081
-0.634564
-0.330066
1.87314
-0.524584
0.555036
-0.641442
0.0297295
0.399612
-0.675951
-0.931283
-0.90292
-1.32403
-0.576621
-0.600235
0.256506
-0.572605
-0.805542
-2.50673
1.28528
-0.384697
1.10485
0.0214305
0.593936
0.739731
-0.489699
-0.788449
-0.686886
0.202423
0.567781
0.419509
0.275676
-1.12027
-0.552976
-1.47056
0.173703
-0.614532
1.77998
0.465823
0.588457
0.439052
0.0408683
-0.0571381
-0.188141
-0.979632
-0.440415
-2.0531
-0.282844
-0.759232
-1.24262
-0.939633
1.0447
0.286583
0.380028
0.288226
-0.355073
2.26067
-0.346337
1.22488
-0.165856
1.67634
1.39915
0.303071
-0.696865
0.435799
0.187195
-0.596163
-1.2533
0.0903743
-0.374472
-0.093163
-1.64611
0.0271319
-0.129857
1.07443
0.938565
-0.903423
0.552303
-0.0499033
-0.472222
-1.37045
0.970979
-0.700775
-0.327791
0.742424
0.16196
-0.0690313
0.580291
0.261363
0.815003
0.0083687
0.689868
-0.350321
-0.126987
-0.320548
-1.11441
0.637533
-0.352657
0.228504
0.645688
2.2712
-0.589785
0.810694
-1.40251
0.576922
0.617471
1.42219
-0.870798
0.025027
0.843055
-0.626612
1.5305
-0.951587
-0.195969
0.537716
0.228047
0.0867055
-1.10357
0.101131
-1.46953
0.989875
0.660295
-0.563159
-0.703101
1.74437
-1.35528
2.54128
-1.253
0.51386
-0.0229936
0.502052
1.47714
0.408848
-0.448682
0.821372
-0.243504
0.88207
-0.0394334
-2.30971
0.849908
-1.44873
0.595635
0.405548
-1.12456
-0.244589
-1.11022
0.790363
-0.10507
0.866664
1.199
0.736405
-0.19176
0.522285
-0.647395
0.366464
1.12755
0.177454
0.16717
-0.220587
-0.00183066
0.4883
-0.690881
0.0208677
-0.858788
0.382693
-0.4049
-0.405993
0.0886079
-0.416715
-0.598849
0.670714
-0.161464
-0.383014
0.969298
-0.00464456
-2.63631
-0.00503978
-1.52234
-0.409026
0.860624
-1.19797
-0.436708
-0.0118264
-0.676686
0.388478
0.256827
-0.021154
0.125071
-1.35195
0.752657
0.627437
-0.875232
-0.21439
0.177749
0.786707
-0.456737
-1.29489
-1.21603
-0.640058
0.137517
1.14657
0.482458
-2.04029
1.02642
1.94824
0.243455
0.834925
-0.163839
-0.436066
-0.828539
-0.290439
-0.653371
-0.637274
0.0128028
-0.424085
-1.39983
-0.735178
-1.62601
0.331051
1.29105
-0.759416
-1.29111
-1.07765
-1.22656
-0.160505
-1.39686
0.866718
-1.38214
-0.884426
-0.0647157
-0.0460991
0.197648
0.596532
-0.870325
-0.321609
0.779107
2.09256
-0.354007
-0.303361
3.27219
0.015616
0.672569
-1.53779
0.50946
-0.691928
-0.600619
0.357722
-0.650478
-1.48166
1.33028
0.23329
1.3872
-0.276528
-0.997752
0.158867
0.144157
-0.0207326
-1.05169
-1.00146
-1.58828
0.787677
2.52264
0.535452
1.5867
-0.0174811
-0.450904
-0.599004
0.0593217
-1.29331
1.8838
0.985453
-0.488482
0.477618
1.39832
0.138653
-0.628902
-0.333225
0.8
-0.0531887
0.49484
1.1308
-0.608906
-1.03017
-1.35513
-1.17213
-0.560243
0.436589
2.42498
1.90426
0.122567
-0.0761251
-1.09467
-0.75317
1.01867
1.8603
-0.799695
-0.272193
1.75701
-1.01022
1.34349
-2.07327
-0.0176659
-0.886775
0.325363
1.9788
-1.68328
0.622212
1.91046
0.198554
0.334369
0.18848
-0.397295
-1.02597
0.109153
1.05458
1.66248
-2.09688
-0.0138304
2.56984
0.455487
-0.395568
1.43008
1.29488
-0.00301738
0.532406
0.823652
-1.02957
-0.868012
0.510258
0.858536
1.03726
1.53558
-0.0312267
0.273826
0.161064
-0.0143979
-0.20278
-1.17386
0.738036
-0.172672
-0.087207
0.268756
0.507197
0.209258
-0.447508
0.4139
-1.09747
1.52134
0.162332
-1.82848
-0.651237
1.33987
0.56436
0.0912985
0.0803461
-0.103218
0.567813
0.268671
0.25678
0.0945311
0.181582
1.62123
-0.747404
-0.66776
0.709298
-0.0181863
-0.399516
-0.50036
-0.0277972
1.79054
2.32149
1.62285
1.83879
0.319588
0.702587
1.53593
-0.309023
-0.253736
0.930582
0.554334
0.00105441
0.98512
2.05223
1.91543
-0.385132
-0.483856
0.670789
1.34055
0.626403
0.73081
1.66672
0.906566
0.463334
-2.06593
-0.58106
0.469228
1.40854
-0.772311
-0.786261
1.29468
2.03112
0.0387165
0.274809
-0.112778
-1.23015
0.2524
0.268438
-0.826325
0.101755
0.433374
1.07394
0.154773
0.0306956
-2.11688
-1.35312
0.167315
0.929538
0.654281
0.476893
-0.049745
1.21053
1.59423
0.560242
1.02017
-0.608331
0.586552
0.273843
0.784643
-0.501947
-1.4287
-1.18552
-1.20247
-1.48988
-1.39399
0.978453
-2.38241
-1.04726
-2.12696
-1.05323
0.255108
-0.684984
-0.706429
-0.737755
0.138075
-0.411815
0.0057858
-0.274733
1.20935
-0.477298
0.341602
1.11061
0.139201
0.941508
1.15133
-0.0236355
0.201154
-1.88657
1.91728
-0.169094
0.494905
-1.18599
-1.05697
-1.61308
-1.24812
0.0307242
-1.14964
-0.37438
-1.82843
-0.630056
-1.69358
-0.638586
-0.880782
0.101318
0.538975
0.234865
-0.461995
1.43577
-0.0888412
-0.314646
-0.986778
1.76858
-0.706023
0.0900955
0.889417
-1.27069
-0.855301
-0.133265
-0.198118
-0.184647
-0.590849
-1.7629
1.49138
0.528625
-0.117078
-1.11722
-0.121958
1.50516
0.374332
-0.0979966
-1.16883
-2.34032
-1.62505
1.5359
-0.0259465
1.00231
-0.621319
1.45023
-0.0522914
-1.13689
-0.393847
-1.00189
-0.631256
0.140566
-2.86247
0.0709266
-1.28273
-1.72146
-0.357492
0.25987
-0.0710445
0.62969
0.69395
0.266876
0.553006
-1.69882
-1.71017
1.10397
0.171883
-1.22095
-0.771135
-0.915225
-0.85384
0.697705
0.754339
-0.880581
-1.3752
0.571241
0.645372
0.515819
-2.05249
0.779019
0.412287
-0.891019
-0.728831
0.472585
0.961279
1.05512
0.509575
-0.0834357
0.637806
0.0401596
0.615793
-2.12717
0.717298
-1.339
1.18828
0.00308011
0.0709536
-0.73699
2.29622
2.0101
0.405702
0.323273
0.69158
-0.90142
-0.175346
0.0885774
1.01667
-0.208845
0.55093
-0.890885
0.640392
-0.0999944
-1.221
-1.11729
1.79721
0.100447
-0.679747
1.55117
1.55052
-1.41357
-1.69376
1.58298
1.63046
0.249782
0.101516
1.84903
-0.332729
-0.45346
-0.898638
0.173745
-0.360397
-1.1509
-0.405506
1.07499
-0.113893
-0.464977
0.445131
-1.25615
-0.564682
-0.247727
0.102584
0.432363
0.784452
-0.883677
-0.936699
1.59614
0.340499
-0.915343
-1.81634
0.740362
-0.468294
-0.671477
-1.21429
2.01432
0.560748
-1.18414
0.780309
-0.913417
1.3119
0.851218
0.304412
-0.293227
-0.127465
-0.395515
1.1457
-0.0192161
-0.627745
-1.83234
0.459628
-0.813718
-0.0220638
0.234801
-0.282137
0.797505
0.235592
-0.722285
0.877069
-0.0389107
0.944568
-0.179694
2.19056
0.75793
0.317723
0.429022
-1.46158
0.43807
0.913202
-0.379559
-0.295457
1.0217
0.0372046
-0.431795
-1.4469
0.610258
0.0134827
-0.693889
-0.564386
0.857496
-0.238806
1.22732
0.0732349
1.39469
0.6028
-0.951571
0.215252
0.236611
-1.04737
0.183262
0.611855
0.0343206
0.280268
-0.665207
-0.172345
1.10986
0.415362
0.0210909
1.31655
-1.1016
-0.274869
-0.493557
0.816936
0.224028
-0.250096
-1.15584
-0.68096
-0.368435
-0.46234
-0.640172
-1.08544
0.343689
0.907682
0.302477
-0.647375
-0.221401
-0.858343
-0.447119
0.570906
-1.51988
1.65842
-0.661792
-2.05314
-1.12603
-1.22823
-2.52063
-1.4395
-1.06218
-0.207652
0.414556
2.46394
1.33372
1.21796
-0.135288
0.304262
-1.93014
-0.0090877
-1.56393
1.15722
0.993774
0.332113
-1.93092
-1.90447
-0.983831
0.0487771
2.02158
1.81619
-0.790246
0.578526
-1.16523
-0.164595
-0.619468
-0.717966
0.966396
1.39462
1.53534
0.11544
0.678841
-1.14304
-0.649456
-0.0511492
-0.567973
-1.16181
1.48196
-1.44814
-0.837953
-0.593342
-0.431025
-0.19755
1.16666
-0.761497
-0.75631
0.212198
0.741346
0.92954
-0.0981147
2.16626
-0.685988
1.33676
-0.50221
0.842324
-0.863185
-0.0943584
0.672355
-1.94183
-1.01688
-0.763706
-1.15429
0.601187
-0.985268
-0.862586
-1.46191
0.995764
-0.0438442
-1.41719
-0.775429
0.767632
-0.56832
-0.101118
0.0918708
-0.231105
-0.61363
0.489608
-1.61842
-0.169758
0.0130461
-1.39573
0.181698
0.172163
-0.198234
-0.0439077
0.127204
-0.55212
-0.174727
0.367548
0.168351
0.161199
-0.333421
-0.221096
-0.311055
0.539271
0.141956
1.54327
0.590905
-0.79835
0.706511
-0.101723
0.374208
1.59098
-1.01553
-0.208268
0.0155158
-0.218385
1.05382
-0.421526
-2.29875
-0.0729269
-0.368715
-0.145239
0.379552
-0.140517
1.4272
-1.42756
-0.200465
-2.34739
-2.0475
0.164851
1.60861
-0.151063
1.04417
1.04361
-0.725574
2.52451
0.546714
-1.02846
-1.04712
-0.416783
-0.196275
0.610492
0.319702
1.3181
2.32107
-0.0251085
0.878011
1.47554
-1.04762
-1.95071
0.807243
-0.00137922
1.18398
-2.10841
1.41455
-0.50666
-0.030461
-1.39057
-0.364873
0.164386
0.633697
0.182619
1.06077
-0.0353292
1.1903
-1.87054
0.679054
-0.221156
-0.953772
-1.42052
1.52337
0.349988
0.0313593
-1.3699
-0.303761
1.97442
-0.440198
-0.248643
2.51918
-1.62031
-0.336261
-0.724048
-0.341949
-1.37239
-1.72239
1.02975
0.342612
-0.223909
0.247996
0.454566
-0.0517117
1.68475
0.354074
2.47755
0.0765964
-0.612145
0.917526
-0.0720542
-1.39919
-1.13618
0.479031
1.2844
-0.864882
1.39393
-0.909446
0.446404
1.23366
-0.213345
0.92475
-1.41036
0.652911
0.634706
-1.49763
0.34547
0.831416
-0.0722717
-0.0897514
1.27321
-1.2934
0.00716602
-1.11503
0.403397
2.09902
-0.63046
0.146509
1.60714
-1.43199
-0.322832
2.76766
-1.05193
-0.904926
-0.34855
0.555055
-0.216008
-0.578973
-0.239922
-0.708745
0.722779
1.77686
0.27839
0.4102
0.572792
-0.268572
1.41052
-0.559387
0.729329
-0.0583957
-0.568016
0.469714
-0.272116
-1.86075
-1.05634
-0.233446
0.0171629
-0.936106
1.29213
1.5425
1.20322
0.982182
0.149103
-0.0581098
1.51325
0.602263
1.68766
0.589563
1.62162
0.416643
-1.36997
0.78186
-1.14229
0.259396
0.230847
-1.20532
1.14633
-1.1309
1.65535
-0.188071
0.10473
0.455291
-1.22263
-0.0415999
-0.467862
0.0285838
-0.996488
-1.08354
0.582984
0.128379
1.24488
-0.796321
-0.556645
2.17607
1.377
1.46989
-1.1993
0.491704
-2.52304
0.0137751
-0.148842
-0.881971
1.21484
-0.360774
-0.140474
1.49221
0.855127
0.686742
-0.405573
-1.53809
-0.304576
0.100922
0.368233
-1.87809
-0.101426
-0.540074
1.43312
0.0504227
-0.580911
0.630883
-0.23288
-0.358842
2.45609
2.10554
-0.698
2.1533
0.71758
-1.08405
1.8108
-1.33445
0.0725829
0.854219
-0.496527
0.554827
-0.347937
0.314514
0.121381
0.868256
0.624854
-0.865079
0.517693
1.14251
0.747526
-1.72616
0.160053
0.407172
0.249598
-0.471025
1.4988
-0.252439
-0.0212865
1.31032
-0.286553
1.58997
1.14052
1.24132
0.466923
0.147576
0.636033
0.833601
-1.71885
-0.373991
-1.09502
-1.30676
-0.0199087
-0.707774
0.991233
0.0611357
0.302826
-0.365861
-0.413217
0.902487
2.50878
-1.43785
0.176905
-0.818078
-0.0376914
0.261198
2.15479
1.06616
-2.30478
-0.436927
0.575728
-0.126855
-0.481042
-0.13542
-0.710316
-1.24883
-1.09135
0.628678
-0.49793
-2.1867
1.70691
-0.0135107
1.03122
2.04496
1.28734
0.451165
0.481389
0.546756
-1.06632
2.24867
-0.633482
0.127953
-1.68519
-0.538234
1.48525
0.795251
-0.32021
-1.77681
0.802427
-0.339288
1.27613
0.413814
-1.03967
-0.78459
0.998508
-2.99124
0.510739
-1.14522
0.755105
-0.246763
-0.667099
0.689564
0.578849
-0.0784102
-0.615968
-0.392971
-0.627857
-0.268664
-0.286283
-1.85887
0.223348
1.92214
-1.17613
-2.51036
1.20373
0.30096
0.269295
-0.228485
-0.160048
-2.0532
1.2775
-1.16954
0.745563
1.13002
0.486478
-0.0793228
-1.58336
0.575815
0.22755
0.199629
0.312913
-0.400753
0.694334
-0.893368
1.7195
-0.723883
0.638013
-1.22089
0.837095
2.32537
-0.418457
0.522529
0.0803028
0.654491
0.129587
0.393704
1.50352
-0.369037
2.21278
0.985757
1.06209
-0.546079
-0.309614
0.510581
0.153115
-1.37794
0.0461491
1.01208
-1.11666
-0.795949
-0.816567
-0.143402
-1.03616
1.48046
-0.712081
-0.864624
-0.188857
1.12911
-0.907121
0.788928
1.23202
0.443883
-2.73248
-1.06978
1.2293
-0.590723
-0.029128
-0.274609
-0.467728
-0.617205
0.916932
1.36299
1.48208
0.48636
-0.698071
1.65064
0.684182
-0.343208
-0.576897
1.09353
-1.3106
-1.24421
0.967559
-0.441923
-2.58092
-0.672532
0.317567
-1.32929
-0.681137
-1.53097
1.41437
0.0457533
0.638042
0.124938
-1.35551
-0.646634
-0.105899
-0.229248
1.57263
-0.556896
-2.81025
0.448908
0.157991
-1.10127
0.669042
1.39913
-0.513439
-0.29451
-0.630834
0.859649
0.622853
-0.530432
0.456688
0.687435
1.59598
0.750396
-1.24456
0.143804
-1.14552
-0.551096
0.161681
0.375288
-0.665746
-0.100938
-0.348811
-2.76723
2.04637
0.630941
0.256247
1.64215
-0.447334
1.03437
0.144047
-0.0776305
-2.10686
-1.35895
-0.308865
0.261604
-0.564454
1.37551
-0.607165
1.57113
-1.0537
0.830283
-1.71104
-0.181642
-0.52465
0.0524912
1.5888
-0.890071
0.399763
0.0902513
0.297686
-0.585993
0.510371
1.27839
1.89608
-2.53821
-0.496535
0.768412
0.779023
-0.0630774
-0.919353
-0.164931
0.487625
0.530367
0.129193
-0.0411573
0.183426
0.0154364
-0.0536593
0.0432022
0.294554
-0.825656
0.826561
1.05501
0.245721
0.0882355
0.0948735
0.648928
0.0924192
0.98874
-0.488093
-1.05379
-0.00547008
-0.992805
0.749903
-1.0306
-0.471745
-1.62029
-0.773063
1.69797
-0.478359
0.483465
0.212138
-0.409281
-0.385632
1.27094
-0.414837
-0.891112
-0.760222
-0.302885
-0.516522
-0.0985929
-0.193181
0.501526
2.85939
-1.62881
0.60866
1.08906
0.658067
-0.553735
0.292075
0.616047
-0.170084
-0.879308
0.513342
-0.185084
0.801723
0.184451
1.0238
0.794983
-0.627636
0.131007
-0.273845
0.0423628
-0.903862
-0.765892
0.637796
-0.307706
-1.55287
1.44884
-0.547225
-0.82253
-0.526567
-1.39946
0.00245507
-1.02648
-0.0315368
-1.44924
-1.17941
-0.815847
-0.542418
-0.671556
2.17509
1.50011
-0.712763
-0.452294
0.527764
0.20734
-0.967377
0.267158
-1.43695
-0.300124
-1.07167
0.521212
-2.03768
0.191825
0.835647
-0.0102434
-0.173163
-0.149841
0.358016
1.04572
0.262162
0.908071
0.215847
-1.24891
-0.893631
0.217409
-2.39688
-1.20453
-2.385
-0.362576
0.569259
-0.453613
1.04203
-0.0337273
-1.11917
-2.27888
-1.26453
0.522925
-0.510723
0.566175
-0.347643
1.70504
-0.0554443
0.387085
-0.697141
-2.57817
1.35573
-1.16162
-1.54763
-0.623292
-1.10334
0.920182
0.161997
-1.39736
-1.6912
-0.890894
-0.80951
-0.0165691
-0.102263
0.837819
0.260171
-1.28801
-0.50284
0.783227
0.164761
0.778451
2.20912
0.692214
0.0405863
-0.655397
0.414351
0.538269
-1.43054
-0.744243
-1.27337
-1.65878
0.708842
0.544122
0.531518
-0.158126
0.966188
0.457855
0.377417
0.198998
-0.319346
-0.08454
1.70736
2.12821
1.72973
-0.0938764
-1.45105
0.419931
-1.03768
-0.598041
0.0793492
-1.28898
-0.891978
-0.67716
-2.55566
0.481224
0.293047
1.72751
1.62879
0.25189
-0.126251
1.93063
-0.0524574
-1.48833
-1.63737
-0.48697
1.70199
-0.159635
0.00628145
-0.662895
-1.28945
0.529289
0.568068
-0.735568
-0.178447
-0.30989
2.55069
-1.15427
1.76892
0.404888
-0.0780829
0.297659
0.553739
0.125415
-0.656445
-0.286689
-0.942293
0.597162
1.76422
1.99909
-1.04401
0.621504
1.18335
-2.74522
-1.32232
-1.85804
-0.151127
-0.992263
-0.268612
0.17332
-0.335693
0.00964316
-1.04489
-0.519334
0.601349
-2.24036
0.563816
-0.18042
0.395964
0.0331707
-1.14301
-0.937513
0.28006
0.154926
-1.14328
0.92328
-0.553731
0.659138
2.09349
0.530572
-0.908206
-0.909873
-0.776153
-0.490962
1.16315
-1.27292
-0.280653
-1.3062
0.489419
1.32581
0.790017
-0.0898606
1.07967
0.463532
-1.78866
-0.120114
0.601178
0.162296
-0.305037
-0.394879
-1.79165
0.501758
1.08629
0.421732
-0.862714
1.83168
-0.039915
-0.469644
-0.507082
-0.67938
0.122109
0.606151
-1.53409
-0.388795
-1.08028
0.386337
1.16366
-1.60383
-0.725738
0.094783
-0.752789
0.994794
-0.835029
-1.58827
1.0098
-0.345386
0.604508
-0.69566
0.362113
0.517262
0.0751957
0.408584
0.935024
-0.152198
0.947271
-0.360492
0.306331
-0.334264
-0.602874
0.126213
1.07118
-0.937131
0.191664
-1.15676
0.42456
-1.01327
0.41048
1.1121
-1.69418
1.04081
1.18046
0.188405
-0.0299659
1.21794
-1.9235
0.628502
-1.20421
-0.434744
-1.17816
-0.299985
-1.52056
-0.316092
-1.013
1.23866
0.336512
0.807836
0.361001
0.066349
2.50102
-1.43688
1.00849
-1.09309
0.35545
-1.27861
1.78525
-0.451986
-0.836379
0.770306
-2.58957
-0.17914
-1.31507
0.553033
0.133599
0.325938
1.438
-1.72587
-0.219175
-0.237294
1.16469
0.00842046
-0.587011
-2.21641
0.393595
-1.68115
0.508783
1.86495
-1.53247
-0.964725
-1.09327
0.448904
-0.785147
-0.285952
0.0620304
-1.22387
-0.389085
-0.628036
-0.634402
0.727529
0.278885
-0.114094
-0.33506
1.29786
-0.0197013
0.911485
-0.600311
-1.55378
-0.933391
-0.0733135
-1.18764
-0.536995
0.33669
-0.980988
-0.54069
-0.285148
0.199458
1.17563
-0.420412
0.404834
-1.40477
-0.889948
-1.17156
-0.289957
0.602627
-0.53674
1.50217
0.476344
-0.426001
-0.356467
0.068001
1.93428
-0.461386
0.785505
0.204963
-1.55909
0.487995
1.22734
-0.323667
-0.80386
-0.134952
-0.544254
0.793922
0.361363
-1.71587
1.0729
1.21428
-0.25166
0.511954
0.358292
-0.23171
-0.601857
-1.09939
-0.382921
-0.312886
2.05622
0.00448341
0.785236
-0.867719
1.25485
-1.35705
0.439809
0.56343
0.623798
-1.46543
-1.40382
0.908863
-0.153317
-0.881712
1.07713
-0.189997
0.903707
0.132511
-0.130335
0.120349
0.718382
-0.674617
0.50928
-3.07916
-1.21221
0.0192286
0.1676
-0.572276
-0.349872
0.845564
-0.623737
-0.0785903
-2.07242
0.484406
-0.884695
-0.0562714
-0.18039
-0.445524
-1.37996
-1.45401
0.184744
-3.14327
0.0330647
-0.437156
-0.828348
-1.45515
-0.1053
1.91707
1.30133
-0.491219
0.786117
1.30655
-0.0525492
0.651793
0.979464
0.287508
-0.955712
0.555176
-1.04851
-0.0683691
-0.752903
0.958371
-0.371232
1.43234
0.230665
-0.958011
-1.36996
1.14678
-0.29451
-1.09797
-1.0765
-0.328359
1.00885
0.0891739
-0.258181
1.07181
-0.956694
0.220716
0.833368
-1.53468
0.0934268
-1.92564
0.640594
0.440511
-0.61184
0.451178
1.00849
-0.328898
0.0193948
-0.843467
-1.29307
0.301309
-0.653847
-1.18035
-0.394145
0.817386
0.629856
1.1705
-0.813213
-0.130893
1.7689
-2.30845
1.74704
-1.33233
-0.797903
0.511976
-0.519403
-0.58953
0.509075
1.70715
1.58246
1.77589
1.08163
1.18768
-0.609514
-1.79183
0.33649
-0.455203
-1.17636
0.724935
-0.0377917
1.0172
-0.675688
0.591673
-0.854111
-0.798448
1.27477
-0.53951
0.348104
-0.295953
0.191592
3.14389
0.488492
1.06363
1.5893
-0.623082
1.54518
1.84501
-2.38795
-1.02105
0.00914638
1.06441
0.390351
0.536131
-0.902168
-0.79303
-1.49429
0.0590911
0.401334
-0.0522711
-1.13336
-0.870148
-0.120133
-0.287445
1.57822
0.176931
-0.29722
0.0680576
-0.135814
-0.319129
-1.04797
-1.00847
0.550982
0.583218
0.350222
-0.149238
0.479692
1.01772
1.13408
1.50112
0.569189
-0.682774
-0.834548
0.38892
0.293781
0.827712
0.0338881
-1.12799
0.488643
0.417657
0.00356042
0.340592
-0.803807
-0.416377
0.22625
0.0277292
0.646188
-0.887829
-0.0156271
-1.68563
0.210761
-0.605294
0.286036
1.93879
-1.76737
0.877867
-0.901392
-0.104928
-1.14199
-1.2332
-0.122438
-1.69199
0.914193
-2.05734
0.503364
0.848607
-1.41767
0.26738
0.504506
-1.05398
-0.134444
0.905054
-1.75845
-0.497669
0.856378
0.801
0.323738
0.0751366
0.969391
0.605552
1.7398
1.53964
0.319329
-0.812093
-0.251642
-0.820474
1.20119
0.160778
-1.21194
0.631254
-0.517751
0.815782
-1.09811
-0.839123
0.647337
-0.561649
-0.35072
-0.302557
-1.17081
-1.89189
2.27584
-1.42279
-0.171782
0.525491
0.332175
0.796422
1.11514
1.40747
-0.702859
0.895165
1.0807
-1.91958
1.07584
0.123492
-0.75058
0.95923
-2.30043
-1.34204
-0.201969
-0.898157
1.20315
-0.874304
-0.13676
1.34949
0.588286
0.432212
0.792216
-0.719653
-0.831252
-1.26312
0.287232
0.647775
-0.148576
1.35948
0.999137
0.647321
0.782172
-0.78389
-0.259493
-0.607574
-0.305617
1.596
0.669103
0.201127
-0.748613
0.266227
0.00290641
0.708212
0.238383
1.66343
0.38581
0.133888
0.00146784
-0.27267
0.261637
0.896054
-0.625878
1.46338
0.157892
0.613303
1.3836
-1.09918
0.0272709
2.09766
-0.807793
-2.22444
-1.12043
0.0902408
-0.658774
1.08443
-0.516456
-1.08618
1.02281
-0.511738
-0.105938
-0.932802
-0.352799
-0.327268
1.30047
-0.145622
1.0775
-0.0459156
0.79435
0.905769
-1.03528
0.586011
0.351229
-1.24571
-0.30649
0.308548
1.1299
1.29884
1.59297
-1.25695
0.492758
-1.00713
-0.477923
-1.7585
-0.284686
0.940032
-1.17459
-1.6642
-0.164947
0.255742
-0.969596
-1.57823
0.544229
-0.105576
-0.950026
0.310391
1.11061
-1.23589
-0.455397
1.21499
-1.34122
-0.694833
-1.67287
-1.3735
0.813523
0.133638
0.241415
0.464451
0.805781
-1.18176
1.15142
1.08677
1.55688
-1.45423
2.14078
-0.313666
-0.0659518
-1.42528
-0.516492
-0.328691
2.06274
-0.438766
1.85075
-1.0563
-0.86404
-1.14299
-1.93482
1.37471
0.875887
-0.331242
0.804724
-0.0209726
-0.758682
-0.838897
0.225812
1.20501
0.295726
1.49515
-0.067945
-0.080346
1.78263
-0.337213
0.913113
1.36713
0.535104
-0.139205
1.52671
-1.25403
-0.401553
0.799011
-0.95926
-1.46051
0.03674
0.193633
0.14536
-0.724824
0.274721
-0.530008
-1.4563
-0.917053
-2.15339
-0.209267
-0.888276
-1.29609
-1.69554
0.281583
1.06429
0.592888
0.514087
-0.113882
0.46341
1.34375
1.16168
-1.18961
-0.689898
0.739019
-1.48845
1.22189
0.215078
-0.384348
0.201543
-1.34987
-1.46229
-0.0482885
0.522954
-0.660288
0.839673
0.363363
0.00610943
1.60279
0.242183
-0.0849699
-1.52297
0.481959
-1.67514
0.316805
-1.28461
0.624878
1.18512
-0.80857
1.26927
0.0531593
-0.117725
0.112085
1.64178
2.36606
0.33196
0.436208
0.293335
-0.466661
0.245961
-0.185253
-0.452354
-0.799383
-0.335076
-1.38426
0.992571
-0.863648
-0.541964
-1.73038
0.839788
0.466198
-0.0297184
-2.27321
0.977722
0.217819
1.40847
1.23892
1.18359
-0.945385
-0.771074
1.21701
0.101907
0.693711
0.63171
-1.29667
0.772164
-0.437743
1.96839
-0.541234
-0.832769
-0.381088
-1.30132
0.752277
-0.00171903
0.902929
-0.589773
-0.432835
0.563328
1.41555
0.228998
-0.69752
-0.85231
-0.609316
-1.16792
-1.67503
-1.46776
1.51703
3.05578
1.2276
-0.222183
0.152551
0.845427
-0.655544
0.471044
-0.00417818
0.712822
0.306971
-0.144241
0.710824
-0.800601
0.291496
0.309659
2.18516
-0.932438
-0.712003
-0.949031
1.13149
0.829966
-0.106153
1.49362
0.151777
-0.204239
0.0955212
0.257835
1.43973
1.86045
-1.63101
-0.408389
-0.642811
0.336053
1.72311
-0.937351
2.40406
1.25301
0.827357
0.253776
0.231533
-0.402573
-0.810192
-2.42657
0.395612
0.809198
-0.470475
-1.43766
-0.818825
0.802209
0.961006
0.308376
-0.372297
-0.64442
0.499394
0.285341
0.264874
-0.836511
-0.468065
-0.679951
-0.0771135
-0.807343
-0.693531
3.44583
2.02229
-0.232779
-1.2871
-0.733084
1.30706
0.0718022
-1.33945
-0.681056
1.33286
0.0134626
0.863928
-0.991138
-0.487822
-0.214913
0.772618
-1.71636
0.0541765
-1.72829
1.08103
-0.459128
-1.24856
0.726038
0.980248
0.529062
0.872274
0.00750769
-0.294916
1.06833
0.2908
0.769779
1.2987
-0.0532933
-0.311242
-0.311572
0.0583468
1.46782
0.128097
-1.42897
1.60431
2.89552
0.29581
-0.369076
-0.539741
0.0281053
1.06186
-0.862292
1.65317
0.918627
-0.985241
1.20174
-2.57974
-0.061307
-2.69811
-0.346505
1.65337
-0.0794706
1.41616
0.408049
0.711006
-1.22161
1.84672
0.691451
0.276134
-1.03344
-0.323348
1.50046
-0.20597
0.726004
-0.0467371
-0.518382
-0.829783
-0.0949529
0.66943
-1.49131
0.753201
-0.880099
1.07562
0.0485705
-0.884804
-1.08746
-0.640597
0.911424
2.86764
-1.06549
-2.58773
-0.846566
0.096424
1.22751
0.708656
1.83256
-0.411063
-0.896117
1.87195
0.00185203
-0.175455
0.407527
0.88233
0.275186
0.439033
1.9331
-0.370813
1.17497
0.153734
0.647379
1.55366
-0.631367
-0.480499
-1.09011
-0.186033
0.467915
0.0742954
-0.577869
0.256893
-1.21337
-0.514102
-0.264865
0.651073
1.76289
-1.35438
-1.16508
-1.9038
0.218191
-1.18284
0.312168
-1.61448
0.294254
-0.647012
0.0307194
-1.7009
-1.00718
2.09195
0.11064
1.04582
0.697419
0.00436348
0.11068
0.775157
-1.00388
0.298399
-1.18466
0.194454
-1.58961
0.262858
-0.00358258
-0.172245
0.0868688
0.301894
0.0289291
-0.87628
-0.247801
-0.588552
1.07203
0.741551
1.35485
0.918874
-0.966769
0.320306
1.95089
0.0137826
1.18697
0.49287
0.221756
0.346136
-1.94689
0.914176
-0.242294
1.22379
1.78124
0.197625
0.534048
-0.835439
-0.559447
-1.33729
1.30018
-0.584185
-2.22435
-1.02574
0.520749
0.940645
0.859498
1.21496
-0.775363
1.18284
-0.190499
-1.07797
1.48719
-0.452183
-0.597282
0.623919
-0.183362
-1.48142
0.285617
1.75239
1.65886
-0.526572
-0.129777
0.611949
-0.17802
0.88635
-0.337056
0.910439
-0.487808
0.49197
0.22751
0.218819
0.599632
0.844212
-1.53636
1.85513
1.57398
-2.30274
1.32555
1.00115
0.513847
-0.194946
-0.970847
1.31044
0.388867
0.10514
0.42283
-1.36151
-0.833451
-1.00714
-1.12972
0.358151
-1.26531
0.490459
-0.403022
1.74729
-0.797753
-0.288802
-1.03247
-1.31302
-0.81862
1.38578
0.625362
1.08636
0.882866
-2.58842
0.351218
-1.69273
0.274504
0.755867
0.165689
-1.57527
-1.23395
0.588285
-1.32203
1.3925
1.45221
0.450266
-0.387795
0.856708
0.908363
-0.293799
-1.11665
-1.00116
0.888767
2.24188
1.8931
-0.10492
-2.01832
0.580347
1.03705
1.63711
-0.296223
-0.216104
-0.0389468
0.338121
0.945512
0.500668
0.251849
-0.442062
-1.40043
1.12793
1.47544
-0.8812
-0.28316
-1.0919
-0.96063
1.10195
0.108836
-0.999103
0.555528
-0.0934195
0.10664
-0.534469
0.440778
0.152577
-0.717778
0.849231
-2.4223
-1.13075
-0.820927
-0.186981
-0.618836
0.0563103
-0.881064
-0.640334
1.98806
0.133186
-1.41424
-1.71533
0.675924
0.718227
-0.259009
-1.44066
0.190803
2.27097
-0.990801
-0.670196
-0.450554
-0.259013
-1.54771
-0.212975
-1.32781
-0.136004
-0.542807
-0.626052
0.293727
-0.975091
0.947736
1.27063
1.61056
-0.827378
1.80999
0.920036
1.24723
-1.84514
1.20013
-1.01039
1.6577
-0.43271
-0.997971
-0.490138
0.572987
0.812839
-1.17673
-1.42933
-0.7864
-0.212795
0.0312645
1.23526
1.10511
0.0495081
1.31512
-0.964646
-1.46506
-0.25104
-0.716267
0.377256
-0.820854
1.33329
0.139087
-0.817747
0.067352
-1.38508
0.389327
-1.14499
-0.807404
-0.0598354
-1.96458
0.449021
-0.829974
-1.04791
-0.988293
0.76292
0.595553
-0.97443
0.766275
0.043975
-0.212941
0.309778
-0.271098
-0.866593
-0.747471
-0.926537
-0.746316
-0.802816
-3.40832
-0.750965
0.184674
-0.563637
-0.829191
1.25898
0.726176
0.512049
0.0856438
-1.38215
-0.412204
0.787375
1.35626
0.292086
0.20169
0.988975
-0.510434
0.435032
0.583775
-0.203311
0.818437
0.122579
-1.826
-0.0327585
0.690763
0.360114
-1.00504
-1.17905
-0.0977706
-0.213041
0.14361
1.32595
-0.36358
0.49176
-1.57355
-1.77335
-1.35239
-1.12605
-0.335113
1.9924
-0.00514103
-0.0832212
0.184032
0.651083
-0.492062
-1.84891
-0.0855938
1.71182
-1.24301
-0.971415
-0.358056
0.808512
0.773967
1.51633
-0.0750202
-0.425645
0.165457
-0.54371
-1.32414
-0.577143
-1.1693
0.432747
-0.99652
-2.04036
0.633812
-1.07451
-1.75626
0.4549
-0.115988
-0.616899
0.254844
0.482474
0.172175
1.03973
0.262396
-1.64693
-0.162042
-0.598223
1.28986
1.13653
-0.852842
0.505903
-0.893843
-0.258097
-0.959367
0.132257
-0.180896
-0.972494
0.203673
0.673941
0.246985
1.908
0.394313
2.05408
-0.3895
0.566387
-0.84065
-0.406914
1.90127
0.28018
-1.71408
0.162443
1.32115
0.215543
-0.795439
0.916508
-0.0722179
-0.44426
0.353794
-0.178785
0.0556031
1.21044
0.578301
-0.280026
0.0172032
0.068992
-0.443894
-1.47227
0.964038
-1.06759
1.35976
0.64813
-0.339053
-0.977248
1.53513
0.731307
0.0234666
-0.00479973
-1.39231
0.0095936
-0.493569
-0.0129544
2.56917
-0.990398
-0.494946
-0.396546
-0.616625
-0.963954
-0.5787
1.15225
-0.5202
0.752716
0.363741
-0.698592
-0.0108628
-0.531864
0.535341
-0.133432
1.57086
-1.22973
1.62653
-0.154307
0.752238
0.631374
0.465909
-0.438468
1.62582
-0.0799911
1.17324
1.78321
-2.15664
-0.450639
0.0108363
-1.18668
-0.639118
-0.498763
-0.431877
-0.930917
-0.915169
-0.923834
0.489719
1.48885
-0.625541
0.330092
-1.14927
-0.513903
0.511995
-0.989252
-0.0797344
0.436913
1.84699
0.350009
0.0932262
0.440472
0.739109
-1.69952
-1.25526
1.0711
-0.441205
-0.835729
-0.156429
0.735002
0.29949
-0.372233
-0.088284
0.855717
0.620555
0.739042
-0.0717348
-0.664187
0.808019
0.0489632
0.137143
1.44386
-0.0940364
-0.363701
-1.29291
2.29396
-2.0215
1.52849
-0.339794
-1.75319
1.27875
-1.05352
0.837805
-1.38998
-0.0424505
0.0808833
0.975585
0.203495
0.223263
0.50798
-0.886411
-0.783576
-0.209744
-0.880431
-0.191037
0.726059
0.212779
-0.684476
1.01281
0.554731
0.992902
-0.536943
0.25634
-0.500868
0.407246
1.34389
-0.929046
1.65347
-0.505339
0.84859
0.370629
-2.53223
-1.41845
-0.45789
0.173414
-1.08286
-0.824408
-0.0187163
1.66926
0.154647
1.35674
1.14921
-0.524072
-0.788001
-0.838575
-0.0275597
0.123727
-1.52465
-1.99051
-0.387361
-0.231826
1.52399
-0.842407
1.14408
-0.137616
0.531581
0.093914
-2.25672
-1.18503
1.2527
0.172074
-1.99541
-0.690395
-0.370584
-1.00534
1.11053
0.960951
-0.693678
2.00081
-0.102542
-2.30609
-0.0163253
0.72677
-1.91761
-0.637873
0.0377161
1.47986
-1.67981
-0.14789
-0.516876
0.361976
1.39979
-0.738282
0.0815901
0.703514
-0.0439835
-0.249642
-0.0417272
0.855347
1.94878
-0.802926
-0.104154
1.25824
-2.69432
0.25481
1.74508
-0.104733
0.235433
-1.35801
-0.246224
1.14553
0.906845
0.455698
1.8689
-0.384013
-0.380824
0.120481
-0.112801
-0.124894
0.891424
-2.09438
2.24921
0.761715
-1.75317
-0.803059
-0.765011
0.0352563
1.24123
-1.16889
-0.576186
0.556926
0.38088
0.497846
-0.0688643
-0.938848
-1.04605
0.971772
0.400062
-0.883824
-0.683294
-0.153759
0.1643
1.62103
-1.02533
-0.241019
0.0576759
2.21608
0.338691
0.908481
-1.57274
-0.891466
0.419961
1.2669
-0.116819
-1.46274
0.579214
1.57035
-1.14606
-0.230796
-1.54228
0.327683
-0.714724
0.674579
0.350897
1.12782
0.33362
0.398293
0.416202
-1.62597
2.00604
0.498431
-0.431521
0.252178
-0.901052
-0.230799
-0.638611
-0.013572
-2.19714
0.419169
-0.797481
0.586787
-0.406487
0.004111
0.0462993
-0.372039
-1.35553
0.343722
0.576066
1.6073
0.389053
0.929404
0.45859
-1.94495
0.111216
-0.485641
0.0492331
-0.55577
1.35805
-1.18247
0.918324
-0.0576362
-0.330099
2.00577
-0.850466
-0.657349
-0.920375
-0.291899
0.842106
1.92089
-0.359517
1.76094
0.995803
0.897163
0.124015
0.762225
0.742734
-0.764581
1.29863
-1.01363
0.0943302
1.17322
-0.303883
-1.87039
-1.62515
-0.839062
-1.26875
1.16216
-0.865475
-0.410533
1.51063
-0.584307
-0.824807
-1.55302
-0.954729
-1.45205
-0.745181
-0.445603
-1.23296
-0.13772
-1.96772
-1.85102
1.59033
-1.14328
-1.39295
-1.44029
-0.275328
-0.540307
-1.61706
-0.142594
-1.15492
0.162605
0.10341
-0.428301
-0.0625751
-0.240379
1.24983
-0.667194
0.36777
-0.3298
0.0757774
2.34711
-0.447093
0.429986
0.3329
0.623922
-1.16186
-0.22147
0.907344
-0.147774
1.46387
-0.273745
-1.8204
0.878931
-0.927673
-0.627203
0.184235
0.205823
-1.46115
-1.13111
-1.71929
0.845416
1.42765
-0.452082
-0.476094
1.30306
-0.697006
-1.50839
-0.0856415
0.865587
-1.55387
-0.785284
0.453507
-1.62066
0.170639
2.4018
2.66729
-1.35974
-1.01145
-1.24115
1.47647
0.975253
0.555807
0.523222
-0.610799
0.60188
-1.40501
-0.601154
-1.87276
0.0327626
1.12442
-0.250175
-0.101375
0.933309
-0.598951
-0.0025484
-1.66872
0.541229
0.404508
0.230163
0.740438
0.741529
0.434411
0.994472
-1.26385
-1.02365
0.815859
-1.08635
-1.02442
0.362605
-0.743815
-1.68965
0.250094
-0.816909
-1.19186
-2.13847
0.423291
-0.414755
-0.422057
-0.985341
0.291414
0.490649
1.10172
-1.32188
0.258933
-0.25894
0.558833
0.340043
0.108267
0.603466
0.36001
-0.879208
-0.604112
1.01527
-0.778431
-0.602279
0.812361
-0.265398
-0.55926
-0.233496
0.510205
0.846339
-0.0104247
-1.58525
-0.634792
1.68128
-1.04153
-0.0183634
-0.127683
-1.18486
0.220626
-0.0396834
0.314602
-0.0926354
-1.2373
1.32162
1.31495
0.751991
-0.634227
0.226007
2.445
-0.291336
0.965527
-0.692645
0.400444
1.84013
-1.00264
0.373801
-0.400936
0.0379803
1.5064
-0.27217
0.259981
-0.742507
-1.27286
-0.489849
1.11195
0.519774
-0.502628
-1.42681
1.43271
-0.0920311
1.07273
0.410174
-0.235977
-0.395373
1.54337
-0.162583
0.560245
0.551436
0.0273984
0.567059
2.29171
-0.231631
-0.987848
-0.414138
0.304991
-0.747228
-0.0284366
0.150435
0.121677
0.615768
0.707329
-0.00375827
-1.24136
-0.487182
-0.822936
-0.730116
0.0618262
-0.820638
0.733153
-0.38156
-0.481265
-0.20181
-0.786608
0.324955
1.33513
-0.433238
-0.844183
0.886538
0.669724
0.426813
1.0891
0.710457
0.121575
-0.85783
-0.735676
-1.22998
1.8945
0.972539
-0.367366
-1.48016
-0.431569
-0.380012
0.275544
-0.0547794
0.058168
-0.568992
-0.809445
-0.0598508
-0.697688
1.92884
1.55519
0.787324
-0.168156
0.170022
-1.46539
-0.637078
0.605127
-1.44793
0.690019
-1.04176
2.09092
0.16695
-0.829566
0.359252
-1.79679
-1.15742
-0.296209
-0.636768
2.65193
0.0844903
-0.824079
1.12822
0.116174
0.0749178
-0.754201
-0.253253
1.04088
1.45418
-1.42734
-0.223359
-1.17327
0.229419
-0.870359
-0.351364
0.520974
0.194902
1.90042
-0.747501
0.175439
0.354516
0.223925
0.0256624
0.240652
-0.145456
0.666855
-0.064377
1.04346
1.29094
0.31574
-0.385745
-0.288923
-1.44668
0.181592
0.56699
-0.561762
-0.077314
0.0481639
-0.0902929
-0.0696164
1.15645
1.22006
-0.47156
1.96399
-0.831231
-0.710904
-0.488865
-0.972835
-1.68625
-0.85094
0.62998
-0.601859
-0.20365
1.15736
-1.06865
-0.244526
0.363699
1.63784
-0.253302
2.26362
-1.28801
0.114818
-0.621093
0.48915
-1.8556
0.25305
-0.559137
-1.56685
0.295962
0.932005
-0.295222
0.549199
0.379728
-0.0876844
0.221241
-0.211219
-1.53371
-1.2795
1.46216
1.09663
-1.58417
-1.88678
1.34997
-0.880524
0.314631
-0.657109
-0.090812
2.2928
-0.607723
-0.916147
-0.664486
-0.35337
0.879835
-0.368492
0.0652913
-1.0994
-0.540276
-0.872914
0.411123
-0.407784
0.849372
1.22147
0.246726
0.37054
-0.443755
-1.04531
2.00856
-1.11627
1.45866
-0.330023
-1.09348
0.316439
2.06144
1.05415
0.0781091
-0.7574
0.109773
-0.83415
0.309259
-0.598223
-1.30589
1.54108
-0.503849
-0.112356
-0.616363
-0.545034
-0.774723
-1.97887
-0.335321
0.226893
0.136747
-1.26603
-1.19145
0.11503
-0.301624
0.464327
-0.563103
-1.04105
-0.0661626
-0.0442496
0.267209
-1.21519
-0.408191
-1.09739
-0.640642
1.45984
-1.87357
1.11245
1.70269
-1.52231
-0.550668
-0.224155
0.738309
-1.55407
0.130324
1.10673
0.34661
0.299316
-1.35361
-1.15249
-0.390375
-0.703975
-0.093303
-0.47908
0.571889
0.547428
-0.219916
-0.655482
0.87303
-0.596753
0.271243
-1.0227
1.11446
-1.55113
0.639863
0.641333
1.93644
-0.455357
0.00248712
1.52528
0.0835214
0.430844
1.46738
1.60374
-2.06418
1.57305
-1.94204
1.26128
2.11934
-2.70949
0.141272
0.00995834
0.0716933
-0.138189
0.333793
-0.379755
0.893419
0.0587188
-0.717876
-1.07657
0.841798
0.403767
0.373044
-0.577917
-0.848134
-1.50285
0.12718
0.891202
-0.742589
0.882512
1.55896
1.51761
1.05588
0.690275
1.4051
0.517946
0.280354
-2.1675
0.03886
0.133321
0.428043
0.0569602
0.258888
0.580719
-0.679181
0.567143
0.819487
1.6779
1.04032
1.13694
1.45821
0.0990423
0.765709
-0.979042
-0.273414
0.381709
1.67129
1.47792
-0.138575
0.247654
-0.072859
1.04185
-0.313585
0.608219
0.685232
0.619536
-1.22437
-0.829494
0.105073
1.13904
-0.824432
-0.0523251
1.19706
1.4529
-0.0899636
-1.54283
0.955202
-1.20734
0.263288
0.442765
-1.53672
0.633753
-0.912695
-0.774377
0.952706
-0.58878
-0.0790411
-0.934077
-0.160169
-0.313588
0.52889
0.666355
0.144765
1.54058
-0.536016
-0.4577
-0.615097
0.637906
0.429439
0.917937
0.701984
-1.5786
-0.0789353
1.9886
-0.667641
-1.29337
1.15984
0.0209258
0.797643
1.6122
-1.31543
0.503598
-0.506023
0.490433
-0.901537
0.0655481
-0.294147
1.17172
-0.4363
0.0731934
-0.82761
0.0851304
1.28727
1.60339
-0.225466
0.0391017
1.0602
-0.773152
-1.1171
0.399848
0.0708148
0.109667
0.141571
-1.76728
-0.57918
0.259467
1.51371
0.134879
-0.47479
-1.13727
0.791071
1.81226
-1.43864
1.39122
0.406764
-0.0599336
2.15324
0.544335
-0.613787
1.55716
-0.0495382
0.116094
0.664978
-1.37101
-0.142011
-1.97037
-0.50903
-1.23555
0.903724
-1.37498
-0.183986
-0.10156
2.98814
1.10742
0.292737
-2.49213
-0.0785752
0.679035
-0.00205015
-0.766711
-0.438585
-1.36486
-1.74245
-0.167875
-0.739223
0.0584108
-0.555874
0.291536
0.0757056
-1.30403
-0.4297
1.16113
1.90289
3.06555
2.61
0.803167
0.0436615
-0.944124
-0.209102
-2.10397
0.174857
0.734222
0.00261029
-1.78817
0.28177
0.840139
-0.16876
1.23625
0.704262
-1.14331
0.711563
1.00998
-0.688731
0.693371
0.519552
0.620173
-0.618098
-0.661592
0.472884
1.33356
0.0301723
2.00128
0.508198
1.84787
1.00291
1.1031
0.361613
-0.348707
2.21046
1.11157
0.547433
1.9316
-0.864449
0.135346
-0.416865
0.686135
0.320199
-0.037938
-0.444926
0.586674
1.012
-0.891676
1.08094
0.5255
0.0572644
0.681993
-0.93035
-1.54931
-0.814927
-1.82906
-0.065793
-0.395701
0.361692
1.40813
1.55787
-0.862048
-0.475674
0.0124675
1.95093
-0.00342234
-1.06578
-0.341162
-0.706333
-1.13859
1.10496
-0.529276
0.889419
1.89823
-0.419464
-2.30492
1.96281
0.437742
-0.524832
0.647394
-0.608043
-0.57724
1.87932
0.610683
-1.84394
-1.19024
-0.608746
-0.219443
-0.243797
1.23503
-0.603127
-1.47569
0.305854
-0.654665
0.0838055
1.09844
0.915694
0.454661
-2.00606
0.0505325
2.31507
0.4871
-0.551101
1.10662
-1.03782
0.850157
-0.809691
1.46483
-0.321194
-0.452792
1.5813
-0.0547395
0.0409519
1.09814
2.02432
1.19366
0.2272
-0.486756
0.47815
0.107086
0.38209
0.186078
-0.682754
-1.02004
1.89055
2.28225
0.560883
-0.241764
-0.413399
-1.65383
-1.00539
-0.0669674
-0.931063
1.63529
-0.543672
-1.05613
0.520701
0.565312
-0.587335
-1.26381
1.32105
-0.987208
-1.51964
1.66004
0.597742
0.413345
-1.24203
0.163393
0.483984
-1.38408
0.100083
0.361514
-0.697001
-1.36748
-0.212119
-0.179191
0.0598554
-0.135348
-0.783219
-0.478167
0.495114
-1.12964
-0.705432
0.570296
0.395612
1.78653
-1.32131
-0.224216
0.345561
0.992649
-0.669129
-0.600104
0.614614
-0.824828
-0.192818
0.552486
-1.22178
1.92329
-1.50784
-0.783404
-0.755609
-0.090379
-1.137
-0.598609
2.43777
0.776151
-0.0269243
-0.851343
-0.0898441
0.0492002
0.277437
0.096161
-2.12749
-1.28567
1.20832
-0.0994569
0.807082
-1.19672
-1.31466
-0.0362056
-1.74409
0.912908
0.0341604
1.63719
0.733636
-0.771717
0.078655
-0.653349
0.448691
-0.545382
-0.85223
1.04302
1.14875
1.17854
-1.04426
-2.01771
-0.53453
-1.52456
-0.538718
0.621049
0.793206
1.71197
1.4048
-0.140755
0.322533
-1.66464
0.0531275
-2.01094
0.730764
-0.0882836
-0.831316
1.12359
0.367598
0.35759
1.3099
0.802915
0.540898
-1.15733
-0.00355363
-1.35127
0.0777287
0.703554
-1.65853
-0.873224
-0.0612677
1.00336
0.305699
-1.57849
-0.748722
-0.778794
1.45659
0.979079
-0.43277
0.89123
-1.14921
0.374014
-1.03456
-0.3512
-0.563826
-0.419836
-0.157212
1.30141
-0.347325
-0.749964
0.239236
2.49079
-0.44984
-0.575063
0.828347
0.226469
0.128394
-0.125669
0.489473
-0.859865
-0.418151
0.923786
-0.773709
-0.441033
-2.77379
-0.752591
-0.040855
2.08557
-0.689298
0.464658
0.767103
0.176142
0.0255351
-0.886216
0.718133
-2.24825
-1.11286
-1.38216
2.55844
1.13412
1.39345
0.182621
0.513252
-0.250603
-0.102088
0.173973
1.98401
-0.361412
0.374656
0.209508
-0.619887
0.476897
1.53638
0.454676
-1.08616
0.95776
-0.434861
2.22959
0.239353
-0.458286
-0.595851
-1.25154
-0.517436
-0.721346
0.215501
-0.330489
-0.624776
-0.686243
-1.2042
-0.176304
-0.679943
0.403811
-1.21874
-0.610752
-0.112934
-0.0709991
-1.8055
-1.64193
0.34754
-1.45442
-0.80888
1.20837
0.638522
-0.965526
-0.499326
-0.665307
1.00091
-1.07074
-0.43532
0.937944
-0.554335
-0.130061
0.64245
0.470679
1.06385
-1.88302
0.439423
-0.707793
-0.203874
1.65995
0.193087
1.24383
-0.526663
-0.37902
-0.10103
0.171374
1.22581
0.809061
-0.522288
-0.697596
-0.146126
1.4541
-0.56117
-0.73734
-1.3276
0.602954
0.0370388
0.218492
0.28957
0.421459
-0.694262
-0.448372
-1.43589
0.410495
0.0698863
0.0641872
-0.549879
-0.560579
0.914341
0.561942
1.51711
-0.856468
0.575967
-0.503903
0.32455
1.88945
-1.24564
-0.492948
-0.828214
-1.2518
-1.16983
0.420468
-0.112969
0.694632
0.560977
0.00768852
0.946938
2.45875
0.289909
-0.362455
0.94112
-0.962808
-0.283025
-0.466119
1.25546
1.3485
-1.1677
2.23982
-1.04504
-0.276828
-0.879157
1.12978
-1.54554
1.14986
0.280295
0.0497214
-1.96795
-0.616741
-0.741991
-1.09292
-1.00318
0.0165066
-0.993157
-0.638131
-0.435282
0.739143
-1.7555
0.974682
-1.34844
-0.443996
0.496564
-0.722117
-1.96718
0.248185
1.35616
0.398127
1.41552
0.422067
0.613151
-1.31816
0.859917
0.809836
0.268295
-0.612898
0.626968
-1.29113
0.8799
0.197754
-0.80046
-1.03612
-0.0128282
0.629204
-0.13627
-0.822868
0.789159
-0.769884
1.53927
-0.976014
-0.795607
0.0367431
-0.333947
-0.197038
-2.0081
-0.311854
0.897117
-0.000922544
0.825732
-0.737116
0.0516519
-0.616786
0.842563
1.71338
-0.265946
0.535256
-1.34912
-0.705023
0.373734
-2.42202
0.592701
0.551974
0.229665
-0.468315
1.3768
0.224683
0.89766
-1.05938
0.795952
-1.27722
1.81371
-0.757867
-0.621649
0.100016
-0.692304
2.1254
0.697352
-1.49813
1.09129
1.76207
0.658213
-0.00430406
-0.527997
-0.111327
-1.06912
-1.27429
-0.84355
0.461495
-0.347636
0.754918
-3.7469
-0.368213
0.540687
-0.496788
-0.611016
0.439358
1.10776
-0.57144
-0.594036
1.51839
0.973192
1.03758
-1.62093
-0.369538
-0.218159
1.2606
0.45018
-0.159388
0.296113
-0.975728
0.71874
-0.704021
0.265385
-0.242736
-0.977617
-0.85162
-1.08891
-1.08883
-0.340981
0.194475
-1.51291
0.904092
0.969635
0.219635
2.24626
0.266299
-1.15517
-0.269516
-1.6073
0.31607
-1.51441
1.26023
0.895564
-0.432358
-0.355169
0.936735
0.665331
-0.835246
1.59579
0.588019
-0.371021
-1.68302
-0.658388
2.00443
0.24636
0.00428166
-1.04227
-1.35568
2.35206
-1.00339
-0.282553
1.51971
-0.174827
1.98294
-0.8108
-0.492386
-0.59466
-0.849774
1.33258
-0.0372385
0.641199
-0.569195
0.0549258
-1.44081
0.902112
0.240414
-0.116318
-1.93341
0.0607951
-0.63586
0.00312218
-0.336039
-0.41443
0.394116
-0.781715
-0.352166
0.0118158
-0.341732
0.591437
0.603885
0.943607
0.692047
0.589739
-0.016977
0.775501
-1.50139
-0.298628
1.93601
0.344012
-0.876786
0.294013
-0.392102
0.290496
-0.204678
1.22503
-0.383325
-0.936037
-0.986894
0.502241
-1.71655
-2.49486
-1.61581
0.664721
0.500256
-0.306578
-0.353603
0.873733
0.749899
2.36838
2.15993
-0.384153
0.716544
-0.43099
1.08354
0.225234
0.189044
0.199679
0.977512
0.382754
-0.395929
0.0942519
-2.34539
0.551194
-1.24368
-0.690825
-1.66277
-0.878992
-1.71424
-0.244863
-1.54153
0.806242
1.47473
0.290497
-2.31281
0.117136
-2.28049
0.265153
1.30785
0.472905
-0.674415
1.90575
0.778432
0.984686
0.49197
0.347338
0.110012
0.670536
-0.645463
-0.163555
-0.433524
1.84482
1.05331
0.0603285
0.947581
-1.68471
0.842826
-0.875374
-1.2744
-0.57328
1.02309
0.171003
0.55703
-1.65457
1.05826
0.0727527
-0.768298
-0.145403
0.787598
1.19478
-0.101313
-0.237864
0.481576
-1.65869
-1.47917
0.806386
-0.564416
-0.332271
0.235307
1.86595
-1.41924
1.4508
-0.0826389
-2.03954
0.485036
-0.50789
-0.373863
1.39659
1.64528
-0.361847
0.0725932
0.336405
-2.26087
0.494025
-0.607642
1.87639
-1.82092
-0.284798
0.584638
1.90868
-1.82921
-0.287441
-1.04789
0.575513
1.91729
0.923478
0.0167354
-0.582618
-1.64488
0.038581
-0.173676
-0.393125
-0.153919
1.10055
0.217466
-0.727997
-1.77486
0.436777
0.276914
-0.520546
-0.189014
-0.660485
0.426216
-0.120421
-0.442816
-0.320198
0.769505
0.0968855
1.58002
-0.349137
1.66119
0.44461
-0.756293
-0.294841
0.422771
-1.7003
0.247712
-0.674819
0.0157208
-0.545856
-1.08506
1.06703
0.652124
-0.797297
-0.123336
-1.022
-0.287426
-0.201536
-0.972526
-0.837932
-0.225604
1.49076
0.170706
-0.442676
-1.24666
1.13077
2.07378
0.815134
0.910492
0.0618153
0.567178
0.205036
-0.372463
-0.0859914
0.4879
2.14832
-0.206684
0.149392
-0.0435647
0.348081
-0.249882
1.37246
0.618587
-0.167128
-0.888727
0.910258
1.29695
0.492834
1.67812
-1.66239
0.175436
1.34168
2.5358
-0.998569
-0.25238
-0.958915
-0.160702
-0.166379
1.63004
0.000249868
0.21592
-0.420682
-0.337287
0.0846919
-2.24317
0.717581
-1.25321
-0.0531555
1.39492
0.283082
0.819381
0.591685
-0.588639
0.652432
1.10104
0.589958
-2.10613
0.283803
1.07692
2.41191
-0.845907
0.0236853
-0.708416
0.708851
0.0533633
-0.31429
0.636211
-0.33516
0.245007
-0.0130564
-1.49187
3.28225
-0.0722929
-1.53974
0.905739
0.691969
1.36384
-0.432255
0.205653
-0.505208
1.91786
0.0844767
-0.0690559
1.91724
1.04054
-0.0214407
2.72462
-0.498223
-0.345384
0.739888
-1.89284
1.12278
-0.316265
0.78219
0.394832
0.24031
-1.71111
1.68366
0.495428
0.718748
-0.902184
-0.724678
-1.70153
-0.407094
0.564465
1.55367
1.04376
1.67131
-2.03664
-0.198758
-0.0320348
-1.36403
-0.561451
0.0969892
0.409298
-0.937088
-0.477024
0.685242
-0.653571
0.887645
1.67865
0.412726
0.707307
-1.66532
-0.793184
-0.330414
0.552571
0.741837
-2.58578
0.696156
0.284656
0.909841
0.858056
0.344368
-0.924551
1.21496
1.33644
0.808828
1.50369
0.8661
-0.174089
0.772246
0.00109961
0.713547
0.410816
-0.843606
1.89886
0.118223
-3.11045
-0.62228
-0.294384
0.744024
-0.307885
-0.498844
0.559638
0.372678
-0.947446
1.13436
-1.54154
-0.152457
-0.934329
-1.27397
-0.10433
0.695146
1.30469
0.684925
0.490738
1.93097
1.72286
-0.349708
0.617305
0.340741
1.26386
0.00306572
0.063692
0.302346
2.08459
0.218802
0.877213
1.74938
0.658473
1.19797
-1.11401
0.516506
-0.951984
-0.130623
-0.87775
0.571519
0.944159
0.433968
-1.08562
0.918416
-0.478078
-0.769386
-0.722923
-1.58142
0.844495
0.388726
0.602084
0.565565
-0.231542
-0.568749
-0.084449
0.225395
-0.494044
-0.0966864
0.28119
-0.449313
-0.398541
-0.672661
0.140431
-0.642506
0.89663
0.0151613
-1.0424
1.92667
-0.912527
0.458156
-0.275463
-0.476157
-1.55576
0.811901
-1.55372
0.0943405
-0.0819075
0.940369
0.754141
-0.676853
-0.781144
0.301286
-1.06875
0.139223
-0.297983
-0.587411
0.649363
-0.615142
1.69045
-0.293532
-1.15321
-2.24097
0.093299
0.0220781
0.816429
0.200237
-1.66317
-0.0474991
-0.696222
-0.683128
0.755204
-0.7808
0.322077
-0.266106
-2.09213
1.12778
-0.0264666
0.171978
-0.892979
0.533099
-2.08559
-1.18217
-2.53763
-1.8199
-0.816936
1.73249
0.668259
0.971957
0.773102
0.292605
-1.91218
0.940908
2.73066
-1.80085
-0.141603
-0.115026
1.20481
-0.818781
-0.520445
1.09895
0.723716
0.726252
1.09551
-1.68285
0.368289
1.59276
0.960982
0.53803
0.366742
-0.762891
0.362262
-0.935065
-1.43867
-0.545065
-0.0767225
-0.630639
1.56878
-0.463741
-0.32526
1.30254
-0.262139
0.98329
-1.53881
-0.706255
0.491572
-0.533513
0.251451
-1.36656
-0.30617
1.19914
-0.883323
-1.31399
-1.26308
0.004838
-0.0164205
0.363219
-0.938723
1.80044
-2.17455
0.402342
0.319516
-1.26959
-1.21682
1.6432
-0.380065
-0.227392
-0.097741
0.0222431
-0.820418
0.861083
-0.574168
0.202183
-0.676124
-0.892024
-1.21805
-0.661962
1.07995
-1.22159
-1.08875
-1.68523
2.01531
0.100395
0.14965
0.851642
-0.141204
-0.0991942
0.109763
-0.107595
0.235632
-0.102963
1.28464
1.11021
0.0636734
-1.25552
-0.791984
0.104581
-0.868596
0.133573
1.08159
-0.523119
0.375995
-1.45875
0.349003
1.38571
-1.22107
-0.0496932
-1.07446
0.00203708
-0.245744
-0.46134
0.94822
0.749949
0.444517
-3.12642
-1.06745
-1.12314
-0.457481
-0.276258
-0.256578
0.758611
-2.21149
-1.33979
-1.35469
-0.428435
0.0610006
0.0427212
0.742116
-0.284716
0.396252
-1.0992
-0.316103
-0.139678
0.48628
0.602259
-0.504158
-1.47427
0.00521549
-1.19053
1.33893
-0.642096
-3.09782
0.330291
1.08647
1.17114
0.826978
0.655251
1.57084
0.0949925
2.11297
1.12226
1.86546
0.477595
0.0589072
-0.439952
-2.60145
-1.50547
-0.0820597
1.11772
-0.788889
0.142288
-0.117303
1.1118
-0.86718
0.804517
-0.905794
-0.555636
-1.01347
-0.0832992
2.90943
-0.0244142
1.23933
-1.91358
0.146061
-0.654263
0.132592
-1.8144
0.304628
-1.16961
-0.723048
1.56615
-2.03191
1.51904
0.297206
0.799737
0.992031
1.54407
-0.10501
0.27329
0.864902
0.812629
-1.39677
-1.38631
0.0451779
-0.652383
1.55993
-1.63624
1.12961
0.66966
0.230243
1.40111
0.809304
-1.71364
0.873779
-0.603309
0.0425463
0.823017
-0.0102638
0.660421
-2.32842
-0.193309
1.09758
-1.21709
0.300902
-1.30024
-1.73998
0.285999
0.138144
-1.37141
0.411739
-0.482855
0.706406
-1.31311
0.76362
-0.244582
-0.666247
-0.167427
1.64163
-0.504668
-0.784655
1.56289
-0.573399
1.36126
1.06752
1.4825
-0.47507
-1.51748
0.746667
0.0215527
-1.04404
-0.506088
0.0330028
-0.839701
0.791671
-0.359432
1.45433
-0.795583
1.859
-0.584177
0.573047
2.04271
-0.509125
-0.455844
-0.204722
-0.414173
0.989921
0.557765
0.338972
2.16089
-1.23872
-0.604657
-0.441911
0.800411
-0.846179
-1.3708
0.222672
1.26898
0.364845
-1.15501
-1.79508
-0.510636
1.2362
-1.24079
0.959429
1.03492
-1.89566
-1.10748
-1.40097
-0.469277
-1.98051
-0.563781
0.152342
-0.127222
0.829241
-0.123287
-0.691953
0.180279
0.391929
1.01087
-0.060667
-2.21655
0.221206
1.46278
0.187464
-0.509432
2.44578
1.5419
0.540257
0.483741
1.28098
-0.0870007
0.271504
0.254477
0.523511
-1.28531
1.91985
-0.727926
1.61356
0.623477
0.984054
-1.71779
-0.464419
0.691687
-1.3565
0.0498309
1.28583
-0.495713
1.05752
-0.736756
-0.354449
-1.07074
-0.00601048
-1.05673
0.843219
0.868764
-0.0755739
2.16748
-0.980363
0.430887
-1.02522
0.738611
0.668924
0.679945
1.16257
-0.475263
0.447247
-0.527033
-0.408092
1.62454
2.08715
-0.153308
0.211694
0.388505
-0.905601
0.185858
-0.441759
-0.255645
1.00503
-0.457926
-0.360108
0.998652
-0.299172
